{"actor_weights":[-0.013593761,-0.010019996,-0.03597676,0.071584865,0.07903327,0.019891568,-0.076772586,-0.026715327,0.09000575,0.039067626,0.096430056,-0.048447594,-0.14453429,0.11040023,-0.0056839804,0.15684997,0.037513364,-0.07798609,0.060308,-0.018890673,-0.15222806,0.008754604,-0.011819161,0.021701647,-0.014314151,-0.06913209,0.068674915,-0.13882354,-0.010892788,-0.024768675,-0.035771392,-0.013876013,-0.06201408,-0.11547227,0.07584798,-0.02705978,-0.070349656,-0.14390045,-0.10252041,-0.08078937,-0.09333039,0.14336796,-0.042097647,-0.06491153,0.060863163,-0.064987004,0.121907696,0.1013959,0.027960546,-0.028367907,0.099194355,-0.094649136,-0.050564725,0.00006617365,-0.116977565,0.10191583,-0.03543833,-0.024461087,0.123021364,0.028830342,0.050107803,-0.049697123,0.020243257,-0.15883924,0.018758098,-0.12265693,0.031151725,-0.0339046,-0.0866627,0.006887659,0.08506561,-0.007850779,0.03028056,-0.058468685,0.120335214,0.19618389,-0.09826762,0.09893225,-0.0935665,0.12642129,-0.146342,0.04417861,-0.08726355,-0.068796515,0.03389667,-0.110413514,-0.042086527,-0.04787321,0.09382963,0.09618545,0.105174795,-0.018116537,-0.02765409,-0.06241753,0.10167026,-0.017231435,-0.098193176,0.008551797,-0.038605772,0.066316456,-0.13069339,-0.011975826,0.021208178,0.060644563,-0.06470075,0.036137097,0.10846043,-0.03909747,-0.0146795465,-0.12434752,0.044614885,-0.04104222,0.073727615,-0.056652907,-0.02034314,0.02688168,0.030990303,-0.16514996,-0.06294021,-0.017956728,0.049592357,0.0656289,-0.020021364,-0.13000832,-0.049517438,-0.11021688,-0.20868056,-0.17401132,0.087454736,-0.16654913,0.13106881,-0.03394051,0.15196635,0.042266972,0.014972375,-0.009398886,0.07648308,0.031498436,-0.014691452,0.029646482,0.08540885,-0.15476161,0.067674346,0.06194061,0.16493511,0.035809413,-0.10292111,-0.07527323,-0.11537682,0.011481853,-0.107258305,-0.0125004165,0.0386643,-0.056587275,0.09454721,-0.13759191,-0.03410237,0.09485501,-0.09626222,0.058322567,-0.14861214,0.10250193,0.010760511,-0.05294421,0.0579871,-0.12668522,-0.10273631,-0.07142785,0.0141012715,-0.02731868,0.0064833052,0.011883278,-0.113807485,0.08775715,0.054542914,-0.03552398,0.17540053,-0.16615751,-0.064992614,0.07123554,0.01268789,0.112949595,-0.15691362,0.04871502,-0.07434702,0.021741105,-0.059632223,0.094895214,0.0805463,-0.027439015,-0.07036466,0.14109352,0.020627659,0.050837725,-0.036441684,0.08120602,-0.035871632,0.09025991,0.111936875,0.027657866,-0.056222647,0.10470327,0.06014328,0.07795544,-0.04913693,-0.06102306,-0.08637799,-0.0031391047,0.054906633,-0.010829026,-0.045127,-0.03152361,0.22224607,0.06450587,-0.094873026,0.14590195,0.024293737,0.0030914785,0.12228409,0.13429138,0.03227233,-0.026541503,0.10682056,-0.10587223,0.007251524,-0.036128957,0.06103568,-0.01560924,-0.012943187,0.086494304,-0.008811851,0.11968521,0.082049504,-0.090379246,0.047304254,-0.103027456,0.05904138,-0.11919453,-0.1080313,-0.009203827,0.08612366,0.0055866544,0.048667096,-0.02503503,-0.19800447,-0.14619644,0.19062774,0.11485009,0.061938103,0.027194388,-0.03886879,0.074596085,-0.1176755,0.063194394,-0.019343004,-0.11585943,0.04892445,0.18780357,0.06696257,0.049189888,0.033186037,-0.03902984,0.07627327,0.08308992,0.13087037,-0.05517161,-0.08147141,-0.084367506,0.016262447,0.1570547,-0.029794862,-0.0069028907,0.07356775,0.10779139,0.034383044,-0.0025897752,0.07484832,-0.011952498,-0.063354895,0.053098816,0.07634177,0.03151087,-0.035455555,-0.010372998,-0.067782916,0.0076031294,-0.14609398,0.09288332,0.040134266,0.04179153,-0.123026244,0.049347054,0.028312337,-0.09181653,0.10251359,-0.03763197,0.010314528,0.035486203,-0.060223226,0.01246727,-0.080212414,-0.059376184,-0.11396264,0.14945178,-0.17070742,0.08278208,0.09597906,-0.044719692,-0.030654825,-0.1447998,0.18937972,-0.055218644,-0.15015237,-0.050091285,0.031264376,-0.119734436,-0.00597283,0.029962521,-0.13808748,-0.08037336,-0.09144155,0.2333564,-0.04088951,-0.014982489,-0.030888703,0.057254843,0.09678078,0.097151585,0.0017005529,-0.063878275,-0.046998348,0.21141608,0.006804742,-0.027564626,0.056105457,0.10190782,0.095621765,-0.033813607,0.0540042,-0.028265106,0.038397726,-0.0752303,-0.027191715,0.05925543,-0.014732587,-0.062018484,-0.024399407,-0.07449218,-0.11808719,-0.17297798,-0.12888248,0.14901379,-0.028622782,-0.009089935,-0.0031740293,0.15080374,-0.022760201,-0.14273486,0.009407667,0.018451102,0.010573241,-0.17260969,0.040451348,-0.07898366,0.104397014,0.10572199,-0.06520368,0.010672017,-0.014328061,0.06372485,0.034695458,0.034461867,0.045059267,0.017153766,-0.060981344,0.011256819,-0.026175065,0.046822727,-0.051812455,0.108057715,-0.020937437,-0.008156716,0.06609237,-0.0006978696,0.0965161,-0.033567347,-0.058164593,-0.12257522,0.082182445,0.021242557,-0.03851392,0.11754115,-0.03775868,-0.026393712,-0.007874029,-0.018802172,0.12655972,0.06660737,0.089443594,-0.025298908,0.102948435,-0.103720814,0.0041558472,0.093356095,0.08813297,0.094669655,-0.060646076,-0.031547897,0.025448011,0.10373357,-0.112913676,0.10958076,0.035364132,0.040383633,0.07633688,0.08350003,-0.09018133,-0.012741647,0.095644295,-0.22112106,-0.03055575,0.1279449,0.03341201,0.040165097,0.018527651,-0.08391121,-0.0034513844,-0.18589275,-0.01453014,0.08337875,0.047799293,0.17087397,0.016995152,-0.1355601,-0.013036129,-0.11700493,0.06713026,-0.05817351,-0.13140434,0.0685865,-0.08867331,-0.13928357,0.14048618,0.08789083,0.060467888,0.014459841,0.026536567,-0.14069681,-0.007018249,0.067525394,-0.056127824,0.043353904,0.107553065,-0.023925716,0.055588674,0.042491462,-0.092707306,0.051813312,0.05899649,-0.13792929,-0.05547458,-0.101412766,-0.06355185,0.0011418168,-0.050303433,0.010714372,-0.012004313,-0.11568504,0.047337968,-0.002894374,-0.069476515,-0.0012094944,-0.08248032,-0.046103064,0.112494424,0.120990105,0.13178657,0.03871173,-0.11603978,-0.0025010523,-0.0008034996,-0.048951674,0.030686492,-0.103664465,0.007512086,0.047464926,-0.08228657,0.024591466,-0.07304286,-0.15593845,-0.1354465,0.017007994,0.053102564,-0.009706015,-0.013691229,-0.07736967,0.04158103,-0.17865808,-0.23261115,-0.03498553,0.051301602,0.07550131,-0.0018767501,0.024164138,-0.03329207,0.08923375,0.06658793,-0.01870843,-0.0079392465,0.033187132,-0.102052204,-0.17558189,0.06564748,0.09689515,0.024658863,-0.06737555,-0.02209002,-0.13013399,-0.048454985,0.15891872,0.0084065255,-0.20498751,-0.04700971,0.24443199,-0.02510199,0.055336487,0.0053136568,0.06774495,-0.0884847,-0.051317904,0.1266867,0.13678023,0.003826072,0.04549155,0.027660193,-0.012731009,-0.034450512,0.052892804,-0.15485391,0.09388052,-0.11422618,-0.11771523,0.024569333,0.118436694,-0.06582956,0.0025323133,-0.21671398,0.09581613,0.06388147,-0.07646849,0.07882403,0.04163285,0.11533074,0.18469658,0.07091858,0.0016467754,0.0039680414,0.06206912,-0.1118194,0.12439956,-0.0190731,0.09129204,-0.0038432546,0.03046093,-0.008308015,-0.098399036,0.05410927,0.12185916,0.13899103,-0.011759847,0.00874563,-0.056201387,0.09886059,0.0027430716,-0.044383027,0.04733074,0.09964639,0.06675906,-0.060694963,0.06951594,0.10473639,-0.24194534,0.081467114,-0.073362105,-0.013515428,-0.02028338,-0.064193204,-0.007069752,-0.05781231,-0.09528806,0.031412046,-0.008240083,-0.058161806,-0.034801234,-0.06162161,-0.05556366,-0.008753191,0.14813596,-0.072515525,0.05681169,-0.045182247,0.017103741,0.03648512,0.018987775,0.005659079,0.10412724,-0.057153866,0.12628639,-0.03882365,-0.10297858,-0.052845307,-0.02578506,0.073036075,-0.053690266,-0.10477227,0.047045,-0.06405884,-0.03676821,-0.13981535,-0.056573786,-0.09651783,0.03140446,-0.047234803,-0.030091649,-0.17053209,0.027870325,-0.010740891,0.04775271,-0.04422383,-0.040734705,0.03908723,0.022652782,-0.05611859,-0.061259836,0.06536133,-0.06734349,0.008899401,0.15997,0.09809923,-0.00887665,0.047519773,0.13647929,-0.076078616,-0.12328824,0.098536484,0.043644648,0.027867218,0.08625273,-0.040490057,-0.06801484,0.0620288,-0.0189397,0.09269196,-0.1464229,-0.061671793,-0.08111129,0.085396044,-0.019698171,-0.04437351,0.031972665,0.06318101,-0.0067417067,-0.0053107035,-0.047492832,-0.23395972,-0.01274274,0.023538627,0.04514942,-0.028588204,0.09589189,-0.034105346,0.1176469,-0.017006075,-0.012313872,0.05596263,0.14611585,-0.040135242,0.07970734,-0.17441733,0.056107525,0.02334071,-0.002846162,-0.0548187,-0.12589495,-0.0055680196,0.0665097,-0.005720627,0.045100506,0.14203456,-0.021270951,-0.011407031,0.07040932,0.021105835,0.06399217,-0.018073333,0.09283371,-0.032806154,-0.10001769,-0.09713566,-0.06519992,0.010002242,0.0016098123,0.059516113,0.00579026,-0.04583824,-0.042368684,-0.029523488,0.013768982,0.124191605,0.045177825,0.07847185,0.15324286,0.08312603,0.007081761,0.061225485,-0.022385208,-0.03895776,0.04819934,-0.09235463,-0.043320064,-0.09796018,-0.06337229,0.063383535,-0.029518547,0.20150508,-0.0315508,-0.07302708,0.08313575,0.01832329,0.018711073,-0.013981629,0.030184394,-0.075822905,-0.14610603,0.04238084,0.06986358,-0.09305052,0.039333887,-0.043477785,0.01452213,0.04004145,-0.12827492,0.02042975,0.04451275,-0.07229855,-0.038210284,0.083409205,-0.0056166537,-0.03341474,0.1054937,0.046765596,-0.124721125,0.19051059,0.16015078,0.020397939,0.012766978,0.06191685,-0.016164975,0.00085730717,0.0139122065,0.034872107,0.03441586,-0.062616415,0.012780139,0.10907883,0.032125454,0.0008044246,-0.025035277,-0.089093395,0.080705784,0.017669108,0.08706221,-0.019542642,-0.030660644,0.030674743,0.003902971,-0.04253316,-0.0015640645,0.0499274,0.016878556,0.052937318,0.14124858,-0.0025895303,-0.12041656,-0.16811928,-0.09898,0.04456274,0.09273922,-0.038500525,0.048802417,0.08627411,-0.04239089,-0.05011885,0.09607836,-0.056749355,-0.03004905,-0.08136509,0.09852636,0.0955441,-0.12178436,0.005982125,-0.0709885,0.013354734,0.05382472,0.12761912,-0.005198017,-0.11061251,-0.012870621,-0.104569376,0.03132685,-0.12006856,0.13960388,0.09767345,-0.096084066,-0.00542283,0.007969948,0.06760918,0.07726439,0.0568006,-0.025778554,0.06250414,0.10243642,0.033793624,-0.11694421,0.143331,-0.059641387,0.028946245,0.13716117,0.034608606,-0.13877855,-0.020842154,-0.02105477,0.00612753,-0.03196507,-0.025623532,0.013878722,0.07906997,-0.09845678,-0.0078826975,-0.20341037,-0.022393866,0.03615792,0.09671222,-0.15591756,0.056804787,-0.1114559,0.009934369,0.10604033,-0.11686638,-0.10742205,-0.0617233,-0.038787425,0.06804316,-0.05787878,-0.026206283,-0.007514824,0.061525144,0.059092514,-0.05091412,0.023535429,0.10899333,-0.013299281,0.05238124,0.11820829,0.10406772,0.08644484,0.10360358,-0.031110829,0.10243523,-0.100011416,0.16515875,0.10780848,-0.01976864,0.011916346,0.010175981,0.07083642,0.04493659,-0.029750628,0.11039778,-0.12183991,0.028730065,0.1319786,-0.06849792,-0.054070037,-0.048968263,-0.027191829,0.16801755,0.117524885,-0.031853724,0.11860415,-0.06490544,0.044062283,0.057003,0.0033918433,-0.008608385,0.0138833895,0.015677292,0.066657245,0.03663515,-0.019573543,-0.15365052,0.025691025,-0.020599581,0.13132496,-0.017268544,0.1042775,0.01284796,-0.09320773,-0.047228504,0.008464736,0.030106174,-0.013479806,0.0009875596,-0.04438927,-0.006236824,-0.07931055,0.09137493,0.22028697,0.033939503,-0.030860899,-0.026457492,-0.10497732,0.053960327,-0.018820275,0.08951786,-0.04813463,0.055336945,0.056280844,-0.013746814,0.018225549,0.03382423,0.108956635,0.06584895,-0.1485951,0.055399347,0.12608442,0.15238662,-0.01801027,0.022242723,0.014855948,0.07676479,-0.13664378,0.06846316,-0.045493603,0.03853358,0.108506374,0.005135471,-0.021246219,-0.03416985,0.08139244,0.052606426,-0.048644386,-0.07086769,-0.05522963,0.16075456,-0.0062735984,0.04195066,0.045137234,0.047053847,0.048663516,-0.10940846,-0.001871595,0.023919484,-0.04708571,-0.038753107,-0.029392404,0.07312166,-0.01264717,0.20412117,-0.13234094,-0.06954204,0.016551811,0.011351152,-0.08099906,0.024082476,0.014780425,-0.0040005916,-0.054318912,0.0142441485,0.07797127,0.06726503,-0.15708968,0.019640407,-0.020641658,0.064262085,0.007752603,0.032818586,-0.0533005,-0.08106154,-0.011509692,-0.08700312,-0.013647424,-0.031494077,0.02597248,0.07647383,0.08192241,-0.0035689508,-0.054127537,-0.024776807,-0.023556093,-0.14118235,-0.023298325,0.11824266,0.020311454,-0.13686937,-0.06143328,0.08701586,-0.04809441,0.07886553,0.032885227,0.082325324,0.054885734,-0.06723276,0.016453307,0.057078198,0.04033172,0.06107356,-0.087090194,0.017555099,-0.048552,-0.045978837,0.06947964,-0.010856501,-0.05906884,-0.1422049,0.14735352,0.09911805,0.03692937,0.04999762,-0.020810967,0.12887818,-0.18356569,0.16968797,0.054218654,0.01838993,-0.010412016,0.03165379,0.016754834,-0.00534258,0.03854354,0.03896427,-0.044731908,0.043386377,-0.08145825,0.04049669,0.12274174,-0.17101522,-0.047142424,-0.055078976,-0.009854339,-0.15987949,0.024510995,-0.09805386,0.03787278,0.09673164,0.079839304,0.020582499,0.07930626,-0.078087926,-0.04543653,0.03467434,0.02325793,0.0076174345,-0.03091809,-0.12420548,0.0958121,0.029373925,-0.036755946,0.19130063,-0.11462325,-0.08566521,0.118060604,0.09122366,-0.048886847,-0.101766825,-0.08664675,-0.15297343,0.049675234,-0.03170898,-0.05978041,-0.052976068,0.041706834,-0.07706076,-0.09978303,0.07945526,-0.12064839,-0.0076924376,-0.0048807045,-0.0013583836,-0.0995485,0.2146694,0.14589977,0.06989318,-0.10116336,-0.038218047,-0.0015705406,0.17859007,-0.07829392,0.024287444,0.060176026,-0.025915764,0.06610674,0.010354686,0.11727905,-0.028255424,0.012126874,0.06749932,0.121615514,-0.064435825,0.03649726,0.16595285,0.01945716,0.010054344,0.042169422,-0.061933517,0.021826688,-0.1169795,0.042924337,0.091295145,0.046398506,0.1006372,0.08985461,0.0021887105,0.011613008,-0.015590835,0.022001628,0.08932395,-0.20205937,0.018345801,-0.07782872,0.117367215,-0.060090274,-0.029372703,0.102475345,-0.06947383,0.047840547,0.10402593,-0.007027848,-0.03166901,0.01654647,-0.0027072667,0.120660044,0.029820621,-0.014983572,-0.066957034,-0.024205802,0.017954106,-0.10927618,0.17260092,0.03179817,0.04767987,-0.17213649,0.02205264,-0.060416754,-0.08279863,-0.10051703,-0.09295507,-0.00679284,0.0052111303,-0.09921176,-0.077153176,-0.0037345998,-0.004703229,-0.017515225,-0.13490832,0.080418274,-0.024789203,0.031014118,-0.012709374,0.067323215,-0.043441314,-0.113811925,0.03748115,-0.07687076,0.13750081,0.10127734,-0.05225382,-0.00870823,0.0021614374,-0.08466048,-0.09809475,0.019921921,-0.037365455,0.027448075,0.113236666,-0.052012622,-0.14111894,-0.05046871,-0.013033216,-0.01333169,-0.011052149,0.010057675,-0.04908599,0.06344611,0.16620667,0.0026553401,0.11287674,0.015690353,-0.087388135,0.038162436,0.026101785,-0.01679228,0.061794765,-0.066316895,-0.13444428,-0.07782145,0.082644895,0.0018075181,0.06789767,-0.047635406,0.074639924,-0.022981737,-0.14741255,-0.023040136,-0.07792247,0.027578572,-0.10636423,0.022333749,-0.24135387,-0.06859871,-0.058841478,0.025150713,-0.01657262,-0.0068012313,-0.026901323,-0.060437657,-0.060737535,0.07166943,-0.034296118,-0.076508276,0.0028713916,0.048315298,0.00574173,0.13217835,-0.07638554,-0.064092234,-0.016654205,0.06248331,-0.098840125,0.1462492,0.019701097,0.044913355,0.079730004,-0.004955493,-0.011191021,-0.0741521,0.1603703,-0.018646652,-0.09836995,-0.035824705,-0.0015874506,-0.039615333,0.011456667,-0.05084264,-0.049148604,0.022240939,-0.122340694,-0.045610923,0.069664516,-0.15819094,0.06865894,0.0061597126,0.060970303,0.011234766,0.12499864,-0.16776446,-0.15229215,0.13765112,0.09536948,-0.035585586,0.009917069,0.045836933,-0.10387026,0.028194897,-0.0034259437,-0.06583498,0.021760141,0.006155746,-0.1374051,-0.03931426,-0.1469234,-0.02624409,0.006318356,0.053369306,-0.14648393,0.05504141,0.026858488,0.19516875,0.10703716,-0.044553753,0.113824084,0.12799105,-0.14129473,-0.055538625,0.035187628,0.010881814,-0.023328153,0.11004982,0.06579259,0.014197324,0.006483393,0.01697803,-0.024454618,0.10602195,-0.01986065,0.068604395,-0.008735919,0.06360483,0.053373504,-0.034346964,0.06759861,0.14860587,0.044128537,0.12352512,0.13738838,-0.045088325,0.096126944,-0.08078901,-0.14080366,0.019505164,-0.03255101,0.07293511,0.03634293,-0.07114011,-0.19939089,-0.08391241,-0.11957462,-0.09399644,0.17075913,0.18000683,-0.067918964,-0.15025403,0.07896563,-0.0061838985,0.0204684,-0.09291963,-0.055416923,0.008523503,-0.047519144,0.027462674,0.0012015646,-0.09652278,-0.045337528,-0.05246174,0.096628636,0.04499276,0.027830448,-0.060803313,-0.04360289,-0.12970315,0.13207439,0.075676166,-0.048248366,0.13243487,-0.12623695,-0.018937232,0.018861998,0.10067903,0.011033701,0.049201943,-0.11530433,0.02629754,-0.06303615,-0.07801771,-0.12009433,-0.04479894,0.0071775042,0.07677132,0.008035653,-0.20553824,-0.075134724,-0.06921111,0.03727265,0.015044951,-0.04069037,0.055322587,-0.02301384,-0.098790616,-0.008871279,-0.0300104,-0.09188733,0.024933973,0.26696333,-0.01756936,-0.010001336,-0.12849668,-0.110181816,-0.04496718,0.08275898,0.027579935,-0.043722566,0.071459435,-0.0431833,0.04308642,0.1548068,0.011493268,-0.10126527,0.13675602,-0.0957791,0.0049126064,-0.027407011,-0.055311218,-0.0022265667,-0.085975535,-0.040550597,0.030915786,0.1573946,-0.15219922,-0.009130589,-0.07207328,0.05167588,0.09483475,-0.01677693,0.06795519,0.041587822,-0.09467625,0.12865788,0.0805664,0.0023771133,-0.046908915,-0.060615394,-0.1663522,-0.13053527,0.12545073,0.017826075,-0.14265199,0.061647825,-0.013264465,-0.018095221,-0.014162407,0.016122911,-0.013433192,-0.093762994,0.049941193,-0.0701002,-0.09829665,-0.118264936,0.11659447,-0.030034939,-0.012488479,-0.020080807,0.019283107,-0.021301407,0.0030183517,-0.17572868,-0.018352807,0.038308375,-0.04750904,0.06742107,0.18761973,0.03324614,-0.1409995,-0.100299545,-0.07529594,-0.081799276,-0.08257606,0.030101199,-0.19448434,-0.011472141,-0.0040178425,0.09227424,0.032841668,-0.026744485,-0.07064247,0.05362798,0.103737906,0.015783167,-0.050745517,0.096914485,-0.035549935,0.06286663,-0.08555346,0.1483463,-0.0926502,-0.01813428,-0.14131244,-0.027935525,-0.06533567,0.021872114,0.051629093,0.02088552,0.034785014,-0.034379236,-0.10594378,0.021759361,-0.020616328,-0.15495077,0.16768146,0.060437158,0.18702602,-0.13193242,0.11355099,-0.08023482,-0.0147884125,-0.08026503,-0.07909241,0.050422132,0.07894758,0.0045555164,0.031999473,-0.14674266,0.026415717,0.019539444,0.1097516,0.04678725,0.123059236,0.004807145,0.07839367,-0.002988975,-0.05778239,0.09564861,-0.01693343,-0.04188727,0.076541245,-0.018727042,0.03253198,-0.10739357,0.018658327,0.08415556,0.037399765,0.011450226,0.07845445,0.16350186,0.10517076,-0.061361786,-0.054469418,0.013795046,-0.076794386,-0.030144675,0.062086664,0.102193795,-0.04531252,-0.13662243,-0.019620111,-0.032734994,-0.049504325,0.08853387,-0.1646596,-0.006956987,-0.020808913,0.040560935,-0.04154674,-0.0040612523,-0.048914507,0.019574007,-0.04224289,0.031301532,0.024324689,0.095445305,-0.10858617,0.03838437,-0.034512896,0.029533647,-0.0036581636,-0.08937693,-0.09974113,0.0682928,0.14212091,0.05620292,-0.119845994,-0.14648642,0.026862973,-0.15845387,0.033471394,-0.14899682,0.013423311,-0.013675166,-0.14001976,-0.086517744,-0.024447178,0.06129796,0.15229337,0.013226756,0.027270792,-0.0041443864,-0.043892354,-0.060011275,0.07272658,0.050331295,-0.13514373,0.049510267,0.018811615,0.21186192,-0.11446724,-0.017810656,-0.045837946,0.13982956,0.026417373,0.0017040162,0.055095624,0.015235574,-0.09820587,0.008940831,-0.08784696,0.027186792,-0.08919883,-0.03550132,-0.18284003,0.09207727,-0.026214793,0.0061141704,-0.24725895,-0.036933657,0.022729933,0.022021329,-0.05501246,0.032781128,0.04494944,-0.0038770048,-0.066559926,-0.09769358,0.060648404,0.04858193,0.11935277,0.040784594,-0.0836219,0.06954948,0.11730135,-0.057646208,-0.07379489,-0.10311392,-0.03099843,0.081313096,0.15858229,0.037270658,-0.051725466,0.07430473,0.01890547,0.067004226,0.104927,0.021428924,-0.021790449,0.011308269,0.028400166,0.056722984,0.032189526,0.16728494,-0.051362194,0.029653743,-0.043776054,0.083251685,-0.07579005,0.1124124,0.016458793,0.05467528,-0.085498616,0.015931863,0.02156167,0.08864217,-0.024177592,-0.025453327,0.081993945,0.023347648,-0.10665192,-0.024797335,-0.12690951,-0.049701612,0.0011559251,-0.039163932,-0.0005611675,0.064835906,0.07563327,-0.0512757,-0.016066983,-0.0072142496,-0.035417996,-0.12474303,-0.039973542,0.027984658,0.026446506,-0.008041952,0.02999766,-0.00308561,-0.05042941,0.022465833,-0.04252054,-0.06715017,-0.11685406,-0.07969232,-0.03418216,0.064992085,0.021269994,-0.015688911,0.086301275,0.08576782,-0.022101019,-0.0461008,-0.16318342,0.021361887,-0.06764095,0.08738309,0.007348684,-0.057099845,0.07760615,-0.101868905,-0.059532646,-0.014767327,-0.037443165,-0.025753587,-0.0951154,-0.0843903,0.0063082837,-0.013976053,-0.05080807,-0.0035477204,-0.047182243,0.03683733,0.06887351,0.09222039,0.097028926,0.07905646,-0.15463051,0.013877446,0.0073357504,0.090177216,0.017352717,0.0025643958,-0.14838007,-0.024956403,-0.14964929,-0.019264061,0.14983478,-0.032065865,-0.00088554266,-0.06592522,0.14140101,-0.005072427,0.074483484,-0.045363735,0.0628622,-0.09453073,-0.05793021,-0.0037733498,0.0964102,0.06227786,-0.039933987,-0.004391544,0.04516954,-0.054697193,-0.044069313,0.017073972,0.030528273,-0.05804534,0.09230071,-0.09402093,-0.084594406,0.05127499,0.088799745,0.051692177,0.009709336,0.1685929,0.043785892,-0.00052211876,-0.02550565,0.06411301,-0.040712327,-0.07175847,-0.013547404,0.014736799,-0.020286713,-0.08763881,-0.094142064,-0.016700173,0.010153992,0.007663788,0.03386192,0.010030723,0.15519081,0.031289183,-0.017936572,0.0053342404,-0.08841293,0.019635186,0.07359604,-0.05299935,0.04992234,-0.011551512,0.009417829,-0.057470698,-0.028900508,-0.06779367,-0.025356146,-0.031506434,0.052282635,-0.0972148,-0.08567595,-0.11659467,-0.07701865,0.06039706,0.09110397,0.030874006,0.032627933,0.064806774,0.07588917,-0.029249048,0.049779374,-0.0156182945,0.03793626,0.05671562,-0.072647996,0.056026775,-0.028286006,-0.02323065,0.094051845,-0.06258347,-0.03281858,-0.020225396,0.03559993,-0.11484532,-0.10952737,-0.06663551,-0.06445062,0.016109679,-0.046250783,-0.024228938,0.06638065,-0.09552022,-0.08898608,0.057773862,-0.03901212,0.010642261,0.034934856,-0.05115199,-0.035083644,0.0021836439,0.00060529483,0.026570428,-0.062239617,-0.021494102,-0.07839913,0.13838434,-0.010403745,-0.0055488246,0.03431711,0.065876245,-0.05797117,-0.027792513,-0.020060405,-0.10495264,0.03888854,-0.09371595,-0.08400305,0.08916225,0.09670646,-0.109873906,-0.046422165,0.08489721,-0.06815686,0.10572458,-0.022183137,0.037097126,-0.029830066,-0.11807878,-0.06473902,0.011458567,0.028135505,-0.0037630317,-0.10447786,-0.018086169,-0.09666898,-0.111989625,0.028656656,-0.070953,0.048082992,-0.054879915,0.1182488,0.08628815,-0.046249975,0.035857104,0.04378967,0.00013954182,-0.0027910888,-0.068376124,0.03594118,-0.10108275,-0.06912541,0.05921136,-0.024225773,0.021300478,0.04488499,0.13516665,-0.0481819,0.001210827,0.028587408,-0.14105874,-0.12396737,0.090282895,-0.17712742,-0.15376803,-0.024028346,0.051029578,-0.04062212,-0.12938447,-0.078014955,0.122366436,-0.039205037,-0.027163094,-0.02628164,0.023127688,-0.032193985,0.09181542,-0.091164835,-0.020493427,-0.17823541,0.01631945,-0.09769967,-0.04485927,-0.07059364,-0.060235072,0.12437946,-0.02128285,-0.21860562,0.019547744,0.123105384,0.04255327,0.005045606,-0.0016837806,-0.10603226,-0.13554937,0.07940317,0.020323211,-0.02549003,0.18334281,-0.048119202,0.066849984,0.035714462,-0.10521008,0.029329997,-0.10481997,0.008009964,0.0017904508,-0.0066479715,-0.121311046,-0.12835914,0.08306202,0.06915279,-0.082736574,0.040633254,0.102912515,-0.04891471,-0.061904747,0.055079777,0.036305062,-0.09991492,0.12747511,0.22924863,0.054887965,0.06328531,0.08581541,0.07428692,0.03997767,0.0031462233,0.1439082,-0.085876174,-0.10706312,0.0062408666,-0.02415574,-0.034700025,-0.028721374,0.080409825,-0.023039605,-0.094669655,0.015473692,-0.004827132,-0.06994337,0.14486209,0.046864282,0.053873863,0.04537421,-0.0182413,0.14391848,0.019308677,0.05483181,0.095236294,-0.12127327,0.057213742,-0.06471928,-0.04301286,-0.002240737,0.06289191,0.04210132,-0.008675948,0.04731235,0.049197674,-0.00746298,-0.0062603573,0.14488369,0.039165355,-0.10452375,-0.0018766174,-0.018781004,-0.031845972,-0.004600453,0.0655044,0.038462687,-0.019710142,0.021948153,0.06167157,0.083061405,-0.051775075,-0.114811145,-0.20246853,-0.022927944,-0.08880293,-0.017211713,-0.037224866,0.023244891,0.016957108,0.016065123,-0.041090876,-0.09563039,-0.09450923,0.09641193,-0.017808577,0.11201072,-0.094278365,-0.09971072,0.2503991,0.076303534,0.077566214,0.06256178,-0.057543118,0.0013041714,0.051808894,-0.056139182,0.14635669,-0.025768975,-0.07999868,-0.0073079793,-0.048961453,-0.012925808,-0.1285141,-0.13417971,-0.002196059,-0.094132096,-0.039352044,-0.13406928,-0.03679218,0.049586117,-0.070645005,-0.031604584,-0.05323236,-0.00010088419,0.1071189,-0.02781983,-0.046926927,0.043283448,-0.06110906,0.003450658,0.022649355,0.028479416,-0.11261483,0.20663649,-0.039876193,0.015491461,0.13973786,-0.023075134,-0.06054685,0.006630341,-0.02657967,-0.012731502,-0.0375771,-0.016615706,0.047932893,-0.009811836,0.049399924,-0.07325669,-0.10038744,-0.04166582,-0.042767506,-0.08805049,0.26774052,-0.12838507,-0.03316332,-0.014582667,0.09581055,0.028050732,-0.11549339,-0.09525215,-0.17794526,0.021707864,-0.0073243063,0.019887414,0.16492853,-0.012595338,-0.05238881,-0.03345801,-0.10814357,0.107893854,0.02791844,0.14987727,0.040391743,0.037922744,0.017796258,-0.041492585,0.04294267,0.04582088,-0.04213492,0.0032088817,-0.12389615,-0.04921217,-0.013685371,-0.076653406,-0.03322379,-0.03256219,-0.11743056,-0.080222465,0.006403798,0.054197364,0.039583467,-0.112891376,-0.048126303,0.08724894,-0.13193253,0.1091742,-0.015884433,-0.09858238,0.055270776,-0.030809546,-0.11664918,-0.09107011,-0.07044329,-0.06581036,-0.030428717,0.07824162,0.06975728,0.13636716,0.09035749,0.18213291,0.08186985,-0.05269479,-0.11331676,-0.03594475,0.037808727,0.1737681,0.09832403,0.071761936,-0.09998956,-0.014164556,0.019366229,-0.08818609,0.20493121,0.16609402,-0.041736174,-0.099201284,0.10433132,0.07090455,-0.044968143,0.1235267,0.20959614,0.02036884,-0.026512865,0.10839494,-0.046304274,0.06303993,0.03372893,-0.022314092,-0.077838175,0.13669592,0.018939972,0.09138253,-0.010736085,-0.14440706,0.045422122,-0.015413355,-0.057835467,0.04182899,-0.029202966,0.16419457,0.10448183,-0.10346993,-0.04071229,0.011915342,-0.053986613,0.02622272,-0.0076549784,0.074577324,0.016212234,0.059511498,-0.0018423019,-0.095558904,0.08711319,0.1094656,-0.102804616,-0.019186225,-0.03554495,0.0077804453,0.15526496,0.11217723,-0.12508985,-0.0747822,0.0804926,0.020975307,0.03399521,0.16196378,-0.05246113,0.14727916,-0.066728115,-0.11287605,0.08986497,0.00040743017,-0.0072970865,0.088745065,0.03935306,-0.057270106,0.0818455,-0.011242271,-0.108965784,0.012921676,-0.16577278,0.10861938,-0.041600063,-0.105397046,0.043577604,-0.011549401,-0.13056403,-0.07405227,-0.04312453,0.019326773,0.057141893,0.07418328,-0.018472793,0.003013852,0.06239781,0.078237765,-0.056487896,0.009888734,0.0006656028,0.014053927,0.091768205,0.047857415,0.070741594,-0.030459443,0.12763016,0.06947668,0.03617244,0.0052073705,0.1342906,-0.04364172,0.18926194,-0.107798934,0.14338803,0.020953283,-0.05440713,-0.0025597939,0.05330099,-0.20314829,-0.112841375,0.0702802,0.0014766534,0.003390643,0.027594248,0.0064432565,-0.007730531,-0.102723,0.05544619,-0.09952128,0.075722896,0.0041876924,0.051645774,-0.12835486,0.028072461,-0.14916223,0.0784566,-0.02218351,-0.044823658,0.0029713823,-0.07009045,-0.03439124,-0.0051470627,0.10868235,-0.028255932,0.047870148,-0.018974816,-0.004493672,0.047698054,-0.08031413,0.07427712,0.11502391,-0.046337895,0.064271845,0.034962207,-0.01269072,0.015020892,-0.04853578,-0.018617615,0.036945537,-0.10148778,0.035702925,0.09124676,-0.03585662,0.10306149,0.0036467253,0.10257002,0.025211042,-0.009434413,0.02161077,-0.04270561,-0.106929876,-0.10441538,-0.038920905,-0.06303122,-0.054740295,0.071004204,-0.11453914,0.17029998,0.019342167,-0.022492148,0.0336604,-0.16340812,-0.07774917,0.035959568,-0.034284364,-0.095775396,-0.0028432214,-0.024254797,0.06198434,-0.05566408,0.17983554,0.08018755,-0.009949201,-0.06235358,-0.04036245,0.034170605,0.14928648,-0.11381835,0.0123214675,-0.056934625,0.044404805,0.042124767,-0.10546881,-0.0148418285,-0.00988381,-0.026449164,-0.05253902,0.058578487,0.017328596,0.016926805,0.05715303,-0.10859678,0.025479026,-0.16791892,-0.006402882,-0.009650398,-0.08452198,0.17239347,-0.19050907,0.061924655,0.0932263,-0.068445794,0.09457061,-0.08912265,0.07218241,-0.08375018,0.07523529,0.056735054,0.13921909,0.064875156,0.0108346185,0.09237782,0.025102211,0.027400276,-0.09579129,0.058800343,-0.11616888,0.15770687,0.15778105,-0.17926638,0.08905647,0.016328325,0.01775043,0.045264784,-0.07524743,-0.053648725,-0.015428903,-0.14960998,0.020971142,-0.0789309,-0.059332866,-0.060496613,0.034619577,-0.12369005,-0.03595147,-0.046482798,-0.09296678,-0.009388237,0.031111035,0.006860406,-0.037025664,0.023733575,0.07944946,0.046065684,-0.13074996,-0.05795249,0.10841821,0.06708611,0.1666259,0.10292781,0.076791346,0.019321764,-0.057515696,0.03436293,-0.056179367,0.18184465,-0.0889484,0.08560089,-0.08989773,0.0911252,-0.066870384,0.07328875,0.021107953,0.00051327,0.01324184,0.0725766,-0.059908736,0.018930484,0.051898748,-0.06685433,-0.124915764,0.1524054,-0.017946607,-0.16204193,0.01862722,-0.070142485,-0.1696733,-0.17235103,0.18623425,-0.15308724,0.050105665,0.06515963,-0.016999058,0.11152509,-0.011709685,0.21003032,0.13525113,0.058665127,-0.0014372114,-0.035213985,-0.0019469578,-0.10363901,0.020959875,0.037327353,-0.10492202,-0.0042477576,0.04548713,0.03080979,0.008461081,0.0336789,0.04253301,-0.1804042,0.10736433,0.028619403,-0.028686436,-0.023259502,0.080171384,-0.059399236,0.010215592,0.086277634,0.024548573,-0.054349687,0.039138865,0.14291452,-0.053633608,0.048468716,0.11727496,-0.03760034,-0.03660292,0.013921676,-0.1380437,-0.14793198,0.09509247,0.07594406,0.03739678,0.09080764,-0.11324932,0.010889829,-0.17030069,0.014758861,0.04985472,0.06501715,0.016876275,0.081363596,-0.1649122,0.15348,-0.13121459,-0.0056956396,0.026158672,-0.03360395,0.017655782,0.022993539,-0.095925555,0.24445693,-0.0030047027,-0.09210169,0.012005134,-0.010167639,0.011894121,0.15034929,0.13291515,-0.081743695,0.026035398,-0.01081473,0.037905443,-0.026249614,0.0148451375,0.10698695,-0.12024781,-0.0048486036,-0.12875277,0.03591047,0.01760095,0.0408978,-0.02490229,0.2176401,0.019281546,0.038613126,-0.07420188,-0.063719116,0.022774674,-0.003079043,-0.036918513,0.043390676,-0.009574363,0.054969802,0.114871815,0.08157819,0.035078477,-0.03505489,-0.15442997,0.20073813,0.07287489,0.075928636,-0.0035274175,0.07459323,0.0891592,-0.10105836,0.08164106,0.1647381,0.07276822,-0.1340234,-0.05540052,-0.016005866,0.01732889,0.07263607,-0.17230465,-0.012895442,-0.16733424,0.10163381,-0.06512622,-0.055356905,-0.07384501,0.008627322,0.13324355,0.06767716,-0.048611335,0.01812266,-0.11016107,0.13585185,-0.05574045,0.050422702,-0.080019996,0.019554624,-0.013230624,-0.033762116,-0.08982872,-0.0021755714,-0.004853281,-0.07156881,-0.05433563,0.0072221584,0.03255035,0.04314826,-0.08054978,-0.1069378,-0.010596358,0.040116057,-0.026525855,-0.107962556,-0.13191396,-0.07399712,0.065570675,-0.06859947,0.078188196,-0.052114617,0.059339643,0.03842651,0.024607923,-0.043799944,0.0038539495,0.111414455,0.085926965,0.095240854,-0.034488782,-0.086743236,0.047500353,-0.1904578,-0.06817654,0.080324806,0.094855666,-0.1921001,-0.061910957,0.024779364,0.19941679,-0.013463543,0.07634529,-0.15205693,0.103282794,0.19478768,-0.044563085,0.13296556,-0.036586143,0.112377495,0.027624503,0.0239611,-0.13047776,0.012333784,-0.037662942,-0.018232409,0.012478645,0.09564404,0.012257403,-0.015801989,0.022730472,-0.09960457,-0.13445851,-0.12002722,0.004452794,-0.10751825,0.01776751,0.14272997,0.056988068,0.0360164,-0.010808698,0.0033325793,-0.053762496,0.024102183,0.014875807,-0.013101871,0.06799112,-0.07668648,0.0936601,0.012880082,0.109152,-0.021846097,-0.030461386,0.15338573,0.042958986,-0.004956254,-0.052646894,-0.048633054,-0.008447868,-0.045863125,-0.114719905,0.03489741,-0.033701267,0.05511284,-0.08962391,-0.10760766,0.012251534,0.0155243175,-0.08025071,-0.04898704,0.078051366,-0.077314086,-0.06799818,-0.0748344,0.048925746,-0.02585615,0.17924073,-0.17079225,0.085301064,0.04306789,0.12145615,-0.049037226,0.09843911,-0.021678146,0.1748086,-0.074791305,0.036647037,0.09847226,0.14709099,-0.009838986,0.076666325,0.06152009,-0.13682206,0.07564923,0.021072026,-0.016338898,0.09826745,0.05590932,-0.19543925,-0.08680881,0.06401195,-0.09136545,-0.06674362,0.038350146,-0.04419399,0.10741786,-0.062237963,0.0368285,0.02971804,-0.14709316,-0.030603744,-0.009298569,-0.034916725,-0.007258827,-0.044809148,-0.093162216,0.0386961,0.053710185,0.10342393,-0.08993336,-0.18741666,0.020079628,-0.07554312,0.041076336,-0.12025177,-0.08935431,0.1151864,-0.0738453,0.04157493,-0.00055876625,0.13432404,0.07877024,0.12302682,-0.11580481,0.11330844,-0.008062386,-0.059611097,0.036993634,0.015934344,0.02824566,-0.06711237,0.0072036614,-0.19404954,0.123227224,0.0046787616,0.07206096,-0.031662025,-0.08354988,0.044617068,-0.00428587,-0.116724916,0.09306463,0.026657015,-0.10547396,-0.053390745,-0.040572964,0.006745433,-0.09414134,-0.15862228,-0.05443748,0.039977364,0.11269771,-0.029323308,0.08508046,0.06032974,0.12064728,0.043203544,0.0116673205,0.010424228,-0.015494734,0.12868263,0.038769558,0.035224356,-0.023134356,0.1179448,0.08254937,0.02346566,0.040213913,-0.0048401267,-0.106509015,-0.00322076,0.04163432,0.012274958,0.085872345,0.11618934,0.08645294,-0.036473423,0.021759668,-0.14940499,0.062464256,0.059980843,0.101516135,-0.054629516,0.050246473,-0.13938095,-0.03414279,0.054127134,-0.041958317,-0.08556527,-0.10693734,-0.068130955,-0.004068215,0.087080516,-0.03590554,-0.04113646,0.13512371,-0.15230373,-0.025744746,0.04898146,0.12100853,0.137473,-0.10640789,0.04992234,-0.006459194,0.01146624,-0.09194244,-0.09593256,-0.11037058,0.1552528,-0.09857336,-0.00781253,-0.09536096,0.024084538,0.15814124,-0.04990205,-0.08220651,-0.016459404,0.09299305,0.006099515,0.041410334,0.020947175,0.059056368,-0.037329808,-0.050281934,0.03034828,0.21566243,0.0070774425,0.08377037,0.0055769514,-0.00503944,0.012812284,0.056721356,-0.011562522,-0.022732208,-0.19700253,-0.029427132,-0.16645382,0.03668766,0.015010285,0.010653299,-0.06527869,0.1653999,0.07013096,-0.056192286,0.061183352,-0.020647975,-0.049913637,-0.04245019,0.031663302,0.08816028,-0.040081102,-0.16365387,0.019575661,-0.047173236,-0.08494476,-0.016383337,-0.038408127,-0.08789298,-0.05262726,0.11629528,0.04055069,0.23214945,-0.008164709,0.054995585,0.092153035,0.16548821,0.06685892,0.077368885,0.02799041,-0.069961965,-0.1367651,-0.14512712,0.08495,0.024099976,-0.053861417,-0.054963365,-0.08448769,-0.06932541,-0.0037265336,0.016481873,-0.043947704,0.16033795,-0.03646596,-0.0000073615774,-0.021208093,-0.09743547,0.025669063,-0.12624659,0.025358919,-0.09757227,-0.02662591,-0.030216841,0.028034031,-0.043700293,-0.104155906,0.042201575,0.055787526,-0.0951503,0.053981055,0.034245774,-0.022404967,0.1172059,0.043008596,-0.27863786,-0.015475721,0.106020965,-0.03896774,-0.038936373,0.14615358,-0.06357434,-0.010019614,0.15004025,0.04455277,-0.05320892,0.036689118,-0.01704386,-0.0049796547,0.032050364,0.0932957,-0.0583733,0.13382103,0.08547893,-0.027633453,-0.024236538,-0.05018585,0.020631831,-0.061873276,0.1369994,-0.13771397,-0.10694548,-0.04042642,0.04648757,-0.054124605,0.033664927,-0.049203247,-0.10874806,0.07222203,-0.06535914,-0.089477964,0.002202058,0.06805843,-0.025345832,-0.08295744,0.015652033,-0.16142838,-0.046638366,-0.05189236,0.042173225,-0.062754005,-0.027266879,-0.00582135,0.04882594,-0.024722468,0.13850525,0.03181646,-0.08380667,0.10303776,0.05132604,-0.0950674,0.12911993,-0.09816882,-0.06926641,-0.049355526,0.05833921,-0.01872851,0.026635932,0.020029884,-0.00872435,-0.10978316,-0.029431865,-0.13761425,-0.03049562,0.053842735,-0.06543638,-0.04265906,-0.0026091237,0.06282295,0.09284101,0.06846569,-0.066713855,-0.03041685,-0.04496822,-0.12530082,-0.016197706,-0.0472314,-0.05406611,0.040809643,-0.054223638,0.01962821,-0.07899886,-0.017456792,-0.035491034,0.0504374,0.10219891,-0.027317792,-0.088355936,0.00082769996,-0.014401429,0.05887678,-0.019216387,-0.1080991,0.041361578,0.00017305142,0.014070587,-0.05425932,-0.011931983,0.0872656,0.052393343,-0.036038235,-0.057601348,0.16176993,-0.027602704,-0.05419057,0.0121348305,0.04556653,0.04155588,0.056249768,0.046527866,0.15253477,0.124119356,-0.0763953,-0.1700948,-0.025329728,0.009321562,0.0297467,-0.13722356,0.0035424859,-0.17053214,0.09557229,0.0478868,-0.16141562,-0.036575485,-0.19264168,0.1178761,0.029292053,-0.03441248,-0.010246434,0.08378775,0.023145957,-0.007563209,-0.017324455,0.018780032,-0.10247809,0.03912681,0.023001928,-0.106018156,0.029865097,0.055179965,0.08509797,-0.06909105,0.1076947,0.010260604,-0.002833331,-0.0036218239,0.14326568,0.08885308,-0.024826396,-0.12639268,0.041401193,-0.027781602,0.078288235,-0.02448308,0.05531565,-0.081529744,0.019429598,-0.04118175,0.0450246,0.036629435,-0.07611129,-0.04103336,-0.08324349,-0.048716597,-0.028297104,0.05040695,-0.11820922,-0.06874075,0.019961089,-0.0026747757,0.005027339,-0.06742388,0.15958215,0.15528162,-0.14915742,0.07693869,-0.1055132,0.0039831265,0.08638388,0.006034579,-0.05916647,-0.0047788043,-0.14077182,-0.18590376,-0.011379575,-0.061967865,0.035281867,0.0028502245,-0.02813441,-0.03422096,0.13424756,-0.14245827,0.04008967,0.05961666,-0.12930562,0.01754705,0.068074375,-0.033875905,0.10401895,-0.08286089,0.12899022,0.03128736,0.018644378,0.10676919,-0.20147936,-0.002397826,-0.017564887,-0.11200419,-0.0017507724,0.057098445,0.18072298,-0.12216935,0.06694919,0.028514644,-0.011246942,0.037299935,-0.14189024,0.17383544,0.05407066,-0.078444086,0.08830676,-0.060674403,-0.10704615,0.03634316,0.25236905,0.012862918,0.09748259,0.015954461,0.00015243178,0.076689705,0.018658374,-0.044833653,0.04729132,-0.036754604,0.03760923,-0.042702008,-0.04717933,-0.016030816,-0.019744169,-0.055518437,0.07593177,-0.06773759,0.0065899477,-0.006323735,0.027766254,0.04222993,-0.06177366,-0.07649174,0.033904962,0.084489845,-0.012078993,0.051846545,-0.13369898,0.10497651,0.09746577,-0.004755484,0.12878108,0.10032799,-0.02655689,0.097695306,0.14305332,-0.13316049,0.06710056,-0.12529586,-0.037613004,0.109730855,0.014153474,-0.01863384,-0.062341355,0.029875213,0.07785568,-0.100477226,0.110665254,-0.037821326,-0.04887865,0.0016743479,-0.056523863,-0.0074435095,-0.0053515057,0.0050349883,-0.0355246,0.018975107,-0.0054669897,0.0011007222,-0.033175256,-0.08893237,-0.019344216,-0.03760609,-0.031269714,-0.12337275,-0.026601706,0.21773353,0.0796298,-0.08510193,-0.123202704,-0.02295801,-0.08469165,0.046965703,-0.14930327,0.08392652,0.12767227,-0.04420828,-0.11273974,-0.061735947,0.014389679,-0.048948508,-0.0011299151,-0.02941337,-0.05425233,-0.036423065,-0.028133977,0.1255131,0.04971418,0.064327024,0.06697677,-0.0027929367,-0.0123534985,-0.1462607,0.040689513,0.0648313,-0.1158331,-0.14300872,-0.0048620906,-0.030984368,-0.06669976,-0.03101634,0.05888154,-0.004266811,-0.03852313,-0.087667204,-0.07227332,-0.0016564872,-0.07944585,-0.11202681,-0.02653202,-0.08491318,-0.055851415,-0.09074789,-0.019252041,0.041933667,0.05108485,0.07861323,-0.031281307,-0.001769013,-0.048500836,-0.028867112,0.005908688,0.09932942,-0.12012853,-0.023090774,0.05181157,0.03092366,0.017741496,-0.04118849,0.026079655,0.02675616,0.1195674,0.013092992,0.049793623,0.028992398,-0.039278787,-0.053655144,-0.07635349,0.1314105,0.10541806,-0.05570796,-0.07164915,0.0038631794,0.07929446,-0.097260825,0.027139386,-0.05925899,-0.02546216,-0.095589355,-0.061395366,0.025015123,0.07757171,-0.04727231,-0.09185233,0.07396274,0.13203909,0.024083653,0.006453744,0.1281605,-0.120817974,0.038133398,-0.028327221,-0.09284394,-0.028183477,0.041916795,0.07299198,0.14669536,0.0021776296,0.026757924,-0.090452336,0.07471969,-0.01248641,-0.0430151,-0.05550436,0.14842258,0.1802722,-0.12616426,-0.044657897,-0.036436804,0.111695886,-0.083287746,-0.071586035,-0.008001279,0.11087421,0.087617785,-0.12543416,0.026254509,0.027993845,-0.015218892,0.044139795,-0.19784698,-0.11303694,-0.011363041,0.04910199,0.056950655,0.03311806,-0.12044489,0.08626363,0.053647332,-0.039981995,-0.039595094,-0.08347994,0.14349349,-0.05029404,-0.00752909,-0.022991488,0.10204871,-0.089601435,-0.036278926,0.084537625,0.042975903,0.09451195,-0.032633927,-0.029485695,-0.020360257,-0.053549442,0.06760849,0.1646438,-0.032719195,0.050468013,0.019309077,-0.038898155,0.15623276,-0.014958161,-0.026991032,-0.08626292,-0.038765818,-0.12459544,0.07599354,0.066022955,0.04932429,0.026258172,-0.0066331904,-0.0013744317,-0.0140058175,-0.0052429857,-0.017995024,0.03860541,-0.0045434474,-0.09504615,-0.07607171,0.08735085,-0.07485704,-0.0068736365,-0.14295982,0.001056667,0.03436749,0.0600499,0.109884,0.044287004,-0.11638406,-0.029522182,-0.013366806,-0.012249719,-0.055858895,-0.07033278,0.06252191,0.06918031,-0.011703234,0.11730984,-0.010015635,0.016209895,0.109268606,-0.10479642,0.11251565,-0.051557705,0.038686574,0.097219706,-0.03939652,-0.003824364,0.027247127,0.027201796,0.09578291,0.09858366,0.088625796,-0.0762625,-0.07507571,0.005227304,-0.014803614,-0.12340394,-0.018512188,-0.076753445,-0.10857718,0.060560666,-0.043939754,0.07811148,0.098103575,0.05144352,0.0752076,-0.0049405,0.05051041,-0.08370345,-0.052192464,0.034896392,0.046728525,-0.06084816,-0.069548026,-0.08123602,0.1188201,0.112205304,-0.059718836,0.070468865,-0.048434194,0.049034175,-0.0010143274,0.099398494,0.05405797,-0.017027354,0.045024704,-0.019289693,-0.03929766,0.0358804,0.013004707,0.01037827,-0.037540384,-0.0505976,-0.040454015,-0.08067068,0.11185572,-0.024358941,0.08090922,0.029313622,0.0934821,-0.11045974,-0.091058485,0.090067275,-0.04199316,-0.052852143,-0.05198999,-0.053445447,0.027177848,-0.05837242,0.12618016,0.13956942,0.00255677,-0.030233517,0.072944045,0.013068409,-0.105914004,-0.08364191,-0.05167286,-0.055485003,0.060325854,-0.041952915,-0.1695377,0.0165435,0.028879331,0.043638416,0.006643267,0.08118484,0.037627053,-0.05491188,0.07051329,-0.1671192,-0.03533129,-0.06155097,0.0053756554,-0.096631326,-0.08511496,0.11208246,0.10972332,-0.053428583,-0.06319708,0.037680563,-0.071134105,-0.031113112,0.03625446,0.040378727,-0.109093934,0.019194957,0.036681794,0.17436488,0.045760978,0.09290872,0.038679224,-0.06347521,0.011235197,-0.08888369,0.012876531,-0.109078825,-0.022888292,-0.06330898,-0.17921788,0.026631664,0.03530121,0.1028219,0.054631747,0.012501019,-0.06636514,0.085563965,-0.02576739,-0.020141859,0.14168102,0.07911864,-0.23466225,-0.031091351,0.09270169,0.006711547,0.08501798,-0.08812214,0.046475243,-0.022308918,-0.06998152,-0.080367796,-0.008045535,-0.1645439,-0.03535834,0.11335515,0.009426055,-0.06470201,0.039019972,0.058550496,-0.08649986,0.012705355,0.2415926,0.06698427,0.031514157,0.060234446,-0.030548746,0.09384282,0.10806776,-0.085851565,0.07976708,-0.079282366,0.16140763,-0.12348797,-0.025252333,0.03561624,-0.08363344,-0.097679846,0.054078158,-0.11139248,0.09864997,0.16059747,0.040994722,-0.05548158,0.041206468,0.03467499,-0.050155837,-0.09582596,0.022888182,0.017353978,0.062334858,0.04851029,0.07590461,-0.019248663,0.019699225,0.015595635,-0.02776208,0.047298655,0.0133537855,-0.05583519,-0.0034369174,-0.102868535,0.020544527,-0.13327602,-0.032568466,0.07547062,0.11366977,-0.0839254,-0.1356039,-0.005969501,0.15557072,0.09145688,0.10600353,0.050796032,0.06942369,-0.020277282,-0.05041238,-0.043954127,0.13853683,0.22620666,0.023855329,-0.19730073,0.15299493,-0.11413803,0.056274787,0.06466609,-0.09638717,0.007167641,0.16595805,-0.09757581,-0.09369253,0.023792565,0.042346206,-0.032940563,0.09364392,0.023775607,-0.10048144,0.024866275,-0.032407712,-0.103724755,0.03948,-0.10185847,0.032736562,0.029021395,-0.05175603,0.06966856,-0.02246915,0.005508927,0.007134332,0.012428384,-0.001524953,-0.08744468,-0.002302482,-0.11332379,-0.19316743,0.001279783,0.070489466,0.0779896,-0.048598588,0.016155962,0.049602423,-0.10322357,0.04483531,0.120537445,-0.02521476,0.016617808,0.0686382,0.0024608027,0.07163167,-0.08968796,-0.019252043,-0.042055406,0.15140644,-0.08149621,0.00985025,-0.03586847,0.12394343,0.11048308,-0.060610678,-0.119529456,-0.17591585,-0.19821717,-0.03075255,-0.12850836,-0.0614552,-0.019624546,-0.030261563,0.008216524,-0.10277727,-0.07368626,0.0668469,0.043764625,-0.05555717,-0.028711595,-0.037730377,0.095017366,0.031324897,0.015459299,-0.060071163,-0.17219648,0.15526277,-0.043018706,0.09680862,0.08101965,-0.098029,0.1421737,-0.031114297,0.07224377,0.038114887,-0.13696095,-0.00696262,-0.069150105,-0.013888112,-0.021226933,0.036993474,0.05257271,-0.014152776,0.03155279,0.046925835,0.024176033,-0.1298429,-0.08679643,0.023973312,0.09126574,0.0044961143,0.072827145,0.057164423,-0.041338805,-0.0009607414,-0.02156422,-0.01161757,0.018751357,0.008326836,-0.05412736,-0.09703883,-0.0010419626,-0.14157104,-0.058384657,-0.02095913,-0.05988163,0.0241846,-0.013230965,-0.072763115,0.005594101,0.038390785,-0.0868526,-0.048175514,0.06731026,0.04491565,-0.011077888,0.044948075,-0.028673781,0.113027096,-0.0453897,0.024632733,0.0063029015,-0.03765985,-0.03172016,-0.02533144,0.02170933,0.05765589,0.052033097,0.05235846,0.027937973,-0.023194171,-0.027562192,-0.056132354,0.04156753,0.13269019,-0.040904954,-0.01507613,-0.0868666,-0.035394084,0.031470843,0.04800362,-0.017681288,0.054806963,0.005875577,0.02560878,0.045569994,-0.007894607,0.07888969,-0.08650191,-0.033266313,-0.016135262,-0.002427201,0.045360573,-0.07092791,0.010621323,0.07433045,0.019814834,-0.14403242,-0.022915708,-0.14673951,0.061828144,0.019075032,-0.023056589,0.062255025,-0.085710526,0.0017519228,0.036748804,-0.049472697,-0.08026464,0.10723136,0.034989372,0.0048282184,-0.0249071,0.046925504,-0.052785985,-0.16460268,0.060672425,0.044102207,0.005803124,-0.00472043,0.14764605,-0.13289134,-0.0294167,0.05627295,0.026335243,0.091645114,0.08313601,-0.021116836,0.08144912,0.102818176,-0.06488791,0.00037510885,0.021843612,0.06945439,-0.057949007,-0.01608557,0.08994178,0.061578978,0.050380304,-0.05342286,-0.0070916014,0.057741567,-0.0341942,-0.017109782,0.055022918,-0.043991882,-0.061792802,0.15005344,0.10611403,-0.023121027,-0.020740626,0.020942543,-0.008030933,-0.10884079,0.18006063,-0.04667666,-0.17450139,-0.027218534,0.09620991,0.0021691,0.015499765,-0.05138915,0.0049109026,0.067118675,0.046070617,0.0773609,0.01976433,-0.16082,0.1467097,0.058512907,0.014938428,0.009382316,-0.047585778,-0.06283954,0.007013015,-0.06442242,0.04978678,0.07366688,-0.06366579,0.10056524,-0.15943737,0.047641378,0.17153153,0.066204734,-0.14121993,0.029966254,-0.16272715,-0.004689262,0.011015355,0.026599405,0.10715678,-0.15899082,-0.004229294,-0.088449925,-0.043162223,-0.05075307,0.09066582,0.18305708,-0.042991336,-0.1663989,-0.039182432,-0.05418257,-0.022086194,0.01921061,0.039096378,-0.12113713,-0.22507516,0.1157663,0.027527537,-0.12214901,0.006980063,0.019946119,0.021528907,-0.05364274,0.014670375,0.0041930093,0.07091639,-0.11316294,-0.030293727,-0.04225334,0.09042251,0.039392464,-0.03205421,-0.05196894,-0.03420877,0.06525978,-0.051457763,0.014523862,0.033495225,0.009171871,0.10026933,0.13042794,0.08764924,-0.15252335,-0.03020042,-0.037243783,-0.14207062,0.00023804247,0.06496193,-0.017313004,0.04970406,-0.05707605,-0.10557323,0.13346376,0.033254433,-0.17198668,-0.038727567,-0.030571323,-0.16820267,-0.009160437,0.11200118,-0.108449645,0.065638386,0.12394295,-0.030304704,0.10728351,0.05360178,0.011947719,0.06081243,0.1853368,0.0014874495,0.118381165,0.022210607,0.08430241,-0.025158785,0.20684457,-0.07495918,0.20670821,0.09027473,-0.050267026,0.12849188,0.015459528,-0.022233758,0.082660906,0.07741975,0.15132417,-0.07383723,-0.023644065,-0.0019506967,-0.0611957,-0.010301434,-0.102906995,0.08548015,-0.12528375,-0.044703063,-0.06869487,0.057092518,-0.06157871,-0.0650506,-0.004280317,0.104936145,0.0088997055,0.07566445,-0.24632241,-0.013045951,-0.121754676,0.014167721,-0.014874687,0.021893319,-0.012003723,0.021438241,0.052638583,0.17347033,-0.05282033,-0.12860693,-0.033300363,0.01407145,0.10949727,0.082680345,0.0042748637,0.028408643,0.00066547457,0.059049677,-0.20984751,0.02147402,-0.05819236,0.0032381099,0.030574044,-0.053930942,0.013306318,-0.024505857,0.004827122,0.06626921,0.031813838,-0.059474923,-0.0042319186,0.036940936,-0.0003996926,-0.09942003,0.061022066,-0.040534157,0.020940466,0.0357129,-0.010387383,0.028807301,-0.007710709,0.027698679,-0.035941653,0.028677812,0.023612529,-0.0034742747,-0.14943582,-0.089224875,0.17477031,0.004441552,0.05980921,0.07702527,-0.083184674,0.09022624,-0.06281901,-0.04736274,0.031285997,0.008340037,0.084129095,0.099232115,-0.009745166,0.13095619,-0.10886551,-0.04216371,-0.021473942,-0.032060724,-0.0010865135,-0.0034476544,-0.012849514,-0.09087457,0.03832256,-0.009438098,0.051355466,-0.0725011,0.0041703233,-0.096586905,0.12410592,-0.05480203,-0.08516938,0.0033394909,-0.0759639,-0.040049575,-0.06888483,0.014469821,-0.026204199,-0.03666632,-0.097767815,0.04031127,0.019984894,0.047622904,0.009783983,0.1600832,0.10587978,0.07900126,-0.0484061,0.0109203905,-0.003273047,-0.14943606,0.008721156,-0.029345062,-0.039884783,0.08932044,0.079247944,0.13542128,-0.050123908,-0.11897831,0.16119018,0.12228905,0.016440785,0.016338555,-0.10699872,-0.051701643,-0.046119757,0.16894771,0.2167788,-0.014897849,0.094147384,-0.13337272,-0.07092165,0.01717197,-0.06934983,-0.029235741,-0.04846307,-0.074389726,-0.013623187,-0.011768789,0.06397971,-0.07112256,0.0040358556,-0.18253705,0.06038696,-0.064567804,0.08666817,0.09961869,0.021438273,0.0055916402,0.15819585,0.10136446,0.11795329,-0.08450561,0.037930917,-0.122223794,-0.16955425,-0.07149922,-0.11054692,-0.0027217688,-0.053210847,-0.012097391,0.056825895,-0.013741224,0.13356669,0.06551381,0.10272318,-0.034767494,-0.03877954,0.036514495,0.018345239,0.053246066,-0.10935345,-0.10690931,0.035801653,-0.02869043,-0.100883454,-0.10792888,0.03684727,0.18494439,-0.035855588,0.030807203,0.027057193,-0.047222495,0.21812691,0.006660389,0.0740108,-0.064243965,-0.012100983,-0.09474927,-0.026121061,-0.028502904,0.05691776,-0.036612604,0.12932757,-0.02481016,-0.10298824,0.030430663,0.10242649,-0.034690004,-0.10855937,-0.06720969,0.12875749,0.07593252,-0.031157408,-0.059497375,-0.084368,-0.031165099,-0.00089524593,0.003450776,-0.016595537,-0.021260817,-0.13802437,-0.06588163,0.16421384,-0.03288114,-0.15159334,0.0409499,0.04025414,-0.0103709465,0.02139247,-0.04935101,0.07672902,-0.0037688734,-0.03130435,-0.0012551186,0.027943792,0.0041858293,-0.07525243,0.13482046,0.15415654,-0.053583905,0.02942519,0.14384806,0.09000252,0.018272629,-0.017868392,0.004150879,0.099070765,0.01756442,-0.12735048,0.06368634,0.0038871542,0.06864422,-0.05348584,0.1928366,-0.028448109,0.037066873,-0.04629694,-0.0769426,0.00071981,0.012461903,0.013632276,-0.056465168,-0.003574512,-0.023904255,0.05275648,-0.060992688,0.044032183,0.0060891258,-0.030218441,-0.044882882,-0.0001346442,-0.03228287,0.1385293,0.06471947,-0.13259308,0.045107517,0.04362132,0.18028907,-0.2026876,0.011004324,0.10315451,0.045472894,-0.14257418,-0.047362342,-0.06607649,-0.09251404,-0.081661284,0.09318593,-0.0122071775,0.034748506,-0.067300454,-0.11266773,-0.061881803,-0.042303864,-0.15957442,-0.03262986,0.027583364,-0.094780385,-0.061353054,-0.1975941,0.057246216,0.01479358,-0.007866314,0.043486718,-0.06330191,0.07093658,0.08302906,-0.06573098,0.058196235,0.07126983,0.032203782,0.047647383,0.050509647,0.071976624,0.09431347,0.034786824,0.11403598,-0.032628253,0.019798888,-0.024907123,-0.06308313,0.08107735,-0.0553636,-0.022095654,-0.037656568,0.08280436,0.10461016,-0.14918663,0.025852323,-0.029306646,-0.029182078,0.10241951,-0.042534266,-0.08551047,-0.0034723724,-0.15402846,0.08770127,-0.004387171,0.08458103,-0.102683604,-0.19517249,0.0069616497,-0.066613525,-0.09086762,-0.0459946,0.1336345,-0.062928714,-0.047008146,-0.009165461,-0.033205196,-0.059316974,0.11099948,-0.05487734,0.07373432,-0.0071647796,-0.042178497,-0.072715126,-0.023829821,-0.011974425,-0.13780762,0.08063197,-0.0048141656,-0.13924444,-0.04627143,0.0042043165,0.008846633,-0.039908674,0.09421903,-0.118952155,0.017359039,0.053321112,0.091904335,0.010167012,-0.04065567,-0.015642446,0.11295129,-0.074161746,-0.053151056,0.100862876,0.089997455,0.08851637,0.028245922,-0.00064617477,-0.061380573,0.018455198,-0.036070988,0.007859908,0.08403573,0.17854574,0.1830254,0.09431123,-0.13416547,-0.014909032,0.10118945,-0.057407677,-0.045418553,0.012956945,0.12120884,-0.06780514,-0.06447488,0.020573387,0.21054105,-0.05126116,0.11603892,0.03927444,-0.029251674,-0.058654897,-0.10573665,0.11289662,-0.0026698054,-0.03886489,-0.144498,-0.053181883,-0.044539034,0.11759445,-0.0524424,-0.09039971,-0.003215103,0.0438592,0.038392227,0.023944885,0.026027601,-0.08156571,0.008869391,0.033924013,0.15459648,0.0053893337,0.054593697,0.01277347,0.046785034,-0.034309838,-0.02118562,0.038733065,0.07452374,0.004495012,0.11083517,-0.052574784,0.010637113,0.016394509,-0.09600548,0.04379777,-0.0644758,-0.001994414,0.065044716,0.030010551,-0.106258295,-0.019299446,0.07885497,0.043175608,-0.027609706,0.02105708,-0.082900666,-0.08267272,-0.112444915,-0.058288425,-0.07244729,0.018808138,0.090864986,-0.05567094,0.04855454,-0.12583624,-0.022575913,0.07192703,0.12513204,-0.017848806,-0.03462981,0.1637649,-0.017026892,0.06676149,0.043019403,0.03272373,0.020543942,-0.07421226,-0.02661672,-0.010033845,0.12553656,-0.09892117,0.03492563,0.062383566,0.050581247,0.008950349,0.004393371,-0.004226243,0.02595057,-0.056486446,0.10782844,-0.19253369,-0.17254953,-0.06759816,-0.026408043,-0.027760688,-0.037023008,0.06151341,0.049530037,0.0038201422,0.111418396,-0.11874321,-0.13146476,-0.029955871,-0.05986391,0.15972884,-0.048922576,0.10975261,-0.07662576,-0.015931847,0.007157071,0.09336831,-0.08556681,0.027084213,0.06448758,0.0066722305,0.017355448,-0.07517911,0.067631714,0.17654796,-0.028300533,-0.054462403,-0.12609367,0.07100859,-0.058481965,0.06973648,-0.16716976,-0.15794511,0.029076766,0.047952075,-0.012516214,-0.032114908,-0.0016184985,0.09384972,0.013455969,0.008506438,-0.035590816,-0.11003614,0.11886722,0.046303984,0.06187722,-0.08442284,-0.0026222195,-0.14441274,0.06243831,0.093958125,-0.0036541915,-0.08007836,0.033466842,0.046394907,0.12127425,0.012205932,0.03298238,0.026104562,-0.17682503,-0.20242995,0.080239795,0.12828031,0.038199693,-0.052871272,-0.09515124,-0.099898115,0.007671319,0.050776366,-0.009909005,0.012768292,0.055306777,0.14697619,0.06468734,0.0666031,0.011363452,0.11986547,0.012409734,-0.042939644,-0.005725779,-0.040675838,-0.0925099,-0.11144195,0.06855553,0.039467666,-0.015610017,-0.07175364,-0.045994733,-0.03968758,0.099387266,0.0066247983,0.10294691,0.048443,-0.07822762,-0.014462229,-0.09357351,0.044369824,0.060863983,-0.09795306,0.09113678,0.04453467,-0.11408436,-0.10838685,0.07148622,0.11257691,0.0016508943,0.14786303,0.031062057,0.11229994,-0.047003012,0.053452104,-0.084422104,-0.0046738847,-0.06049482,-0.032000825,-0.04642935,-0.039642353,-0.043885715,0.08225031,-0.024499515,0.05364407,-0.013147688,-0.08922232,0.016836807,0.0356334,0.019955074,0.088488966,0.023662575,0.028156811,0.011866682,0.023247397,0.016971715,-0.016224947,0.0099912975,-0.1374616,-0.072982125,-0.12992692,-0.016699297,0.0048032124,0.10000315,-0.010792693,-0.06445292,-0.051342007,-0.03563823,0.031018449,0.061805204,0.04338372,0.072870135,0.007962983,0.09060238,0.09091327,0.058414638,0.012679441,0.06722684,-0.039909255,-0.06261891,0.06340634,0.05899032,-0.041370563,-0.024079274,0.09256058,0.07934536,-0.05246515,-0.055494893,-0.094865255,0.038999315,0.064274244,0.04462051,0.072258554,0.08534435,-0.037248794,-0.0849407,-0.06290274,-0.05695863,-0.22387448,-0.03441268,-0.024012003,0.03542262,0.065003574,-0.03520303,-0.035522163,-0.15439756,-0.07367379,-0.09956633,0.0044767023,-0.005541038,0.101666786,0.049375463,-0.028052721,0.059166193,-0.08289508,0.13013397,0.18778297,-0.04141172,0.048008066,0.0103386305,-0.028028304,0.055011194,0.039103907,-0.037464257,-0.1040461,-0.08476673,0.12646638,0.07811761,0.037581507,0.08549682,0.005762687,0.27078974,0.12601276,0.08872242,0.08919221,-0.16861428,-0.06369493,0.11098979,0.00243379,-0.094134554,0.20930137,-0.018251063,-0.08609417,-0.1124768,-0.15963598,-0.012220585,0.019865017,-0.044351477,-0.05303849,0.09338457,-0.02857118,0.063397564,0.06538047,-0.17161945,-0.09169888,-0.04908718,0.031183923,-0.0041161394,0.07906835,0.11560682,0.033375338,0.0770873,0.013924806,0.037211437,0.15882754,-0.039275683,-0.11333013,0.09966709,0.05021465,0.020378461,0.029018283,-0.16731508,0.15522416,0.05157923,0.11483859,0.16597304,0.08595563,-0.010095908,0.025100758,-0.008800438,0.050169416,-0.036255363,0.039163474,-0.07986078,-0.058575056,-0.053059813,-0.00007749493,-0.11118265,0.017187847,-0.09501219,0.13511246,-0.032112688,0.026622517,-0.044114877,-0.06367912,-0.019435832,0.10585751,-0.00088869384,-0.00868424,0.02240319,0.015592294,-0.05529594,0.05445242,-0.037546735,0.05846543,0.083130285,-0.06749498,-0.15467428,-0.074051805,0.041121375,-0.07832327,-0.10775198,0.07004777,0.04116316,-0.010168318,0.035141323,0.013487421,0.12149343,-0.04579916,-0.05323338,0.079476796,-0.13253205,-0.14147742,0.02886283,0.067219764,0.05733516,-0.10114905,0.13118744,0.0056204596,0.017432563,0.12076177,-0.08473657,-0.00957657,0.08574509,-0.062339354,-0.076514825,-0.04170982,0.060953334,-0.016740367,0.0078014755,-0.0037327844,0.037002407,0.05912492,0.0070878826,-0.09561169,0.0104640145,-0.06738095,0.06035227,0.0072801486,-0.0029555932,0.0948412,-0.0786585,0.057920985,0.0672399,-0.11054806,0.018158669,-0.15529981,-0.11837992,0.068980545,0.07169322,-0.0059960154,-0.06689886,0.17492862,0.10366377,0.035355773,0.027049115,-0.10856432,0.07558603,0.059996698,-0.13081665,0.007799447,-0.0065074675,-0.057693493,-0.045138493,0.10220881,0.12933981,0.026637716,0.16838086,0.07614724,-0.06405469,-0.023394605,-0.012760256,-0.038109787,-0.055400945,-0.10431278,0.018700873,0.032065175,-0.1300933,-0.055908523,-0.030835425,-0.09215507,-0.015080527,-0.11075892,0.04694996,-0.06603556,0.058906797,0.059323538,-0.026006823,0.032895405,0.04816221,-0.12891458,0.06795765,-0.20012109,-0.23422769,-0.00074196473,0.08845866,0.024319595,-0.12371742,0.033834696,0.0025231265,-0.09216429,-0.015524082,0.009163569,-0.026377039,-0.07212689,-0.10119432,-0.005606969,0.059780322,-0.20779882,-0.05304673,0.04059178,-0.0099672675,-0.054052792,-0.08211877,-0.11962971,-0.020262754,-0.10868948,-0.0054652877,0.044133108,-0.035271976,0.05539275,0.02446661,-0.027962452,-0.0011988998,0.020121241,-0.19442303,0.07670777,-0.17712505,0.050712764,0.040896572,0.14603268,-0.01621363,-0.18017206,-0.058663763,0.012580911,0.10636924,0.0008156663,-0.09229731,-0.011643306,-0.048175797,0.08053349,0.061054926,-0.12047557,0.11017422,0.03634992,-0.15025564,-0.041547097,-0.0647546,0.024990177,0.013672069,-0.07694774,-0.08348882,0.024894485,-0.0549727,0.21286039,0.09094586,-0.059816685,0.10156846,-0.049411144,0.01992817,-0.06955157,-0.036206707,0.05414331,0.0017087074,0.1918513,0.13197191,-0.019032333,0.09943426,-0.014358475,-0.13957821,0.030002084,0.06433009,-0.017966297,0.11054301,0.09826056,0.03965568,0.029285088,-0.014287904,-0.036535945,-0.17966339,-0.13059956,-0.07242509,0.03740965,-0.037629668,0.107196696,0.008954434,0.08802527,0.10971256,0.046740696,0.039826937,-0.020828638,-0.08569235,-0.052419037,0.025199348,0.050897963,-0.05947581,-0.06774188,0.026191182,-0.011312454,-0.0044958475,-0.0009604543,-0.009185365,0.12896377,-0.044154044,-0.032499038,0.026101775,0.019846868,-0.056417458,0.053721756,-0.106778435,0.07159457,0.09294525,-0.0026821687,-0.042621974,-0.06756338,-0.07766679,-0.15381855,0.069445275,-0.06954665,-0.00072894525,-0.11473806,0.06032351,0.05804957,0.10573358,0.0529787,0.104108274,-0.100871705,-0.21989807,-0.074487545,0.13886298,0.12516771,-0.159427,-0.0030957812,0.013436889,0.0808147,0.05169455,0.07799329,0.14380357,0.075321935,-0.034478154,0.079437755,-0.16110621,0.04324637,-0.03409481,0.015897615,0.0055131307,-0.026027447,-0.039338045,0.058259662,0.19262283,0.16443627,0.029049458,0.018273603,-0.051676232,0.059799768,0.03182813,0.21418612,-0.09707315,-0.10679919,-0.03003223,0.04462709,-0.039397947,0.10399692,-0.050466508,0.07951359,-0.08418106,-0.07342429,0.0100895865,-0.033881884,-0.12336261,0.07712688,0.09057811,0.00055560516,0.13251056,0.035179365,-0.039501827,-0.017628575,0.12354153,-0.10001732,-0.011895921,-0.054698765,0.13370815,0.08959944,-0.019623224,-0.16802523,-0.036645755,0.048803613,-0.20320639,-0.08993372,-0.06185033,-0.036043167,0.048277378,0.025905656,-0.019355532,-0.04177696,-0.058955587,-0.012990622,0.14903173,-0.013658726,0.03290563,0.00979807,0.10005207,0.0087486915,0.09448656,0.003566425,-0.023061777,-0.03321112,0.07337618,0.07804383,0.07791334,0.0067993645,-0.021319374,0.062168963,0.08054524,0.09343429,0.11759495,0.10733544,0.079864495,-0.08953056,0.13761614,0.062432144,0.029670844,-0.13933349,-0.14954603,0.11330111,0.057366803,-0.004941454,0.0007806097,0.031663053,-0.02203757,0.048133392,0.12511672,-0.033917096,0.13935253,-0.0557914,-0.03177514,0.10337042,-0.106250465,0.12153566,-0.025187543,-0.0107598435,0.09230064,-0.15073165,0.11288402,-0.017093189,-0.054026697,-0.08174874,-0.021773033,-0.15372574,0.157462,-0.097496495,0.13112052,-0.0852213,0.055216704,0.05137928,0.04128568,0.084034,-0.038180318,-0.078673474,0.06476333,-0.062493995,-0.0744989,-0.09904355,0.027005563,-0.014709932,-0.0070952503,0.014726337,0.013408954,0.10141981,0.08426577,-0.109832026,0.02799225,0.078106515,-0.07641012,-0.10687154,-0.022885947,0.03984445,-0.016395058,0.0110595785,-0.032186646,-0.03561055,-0.073940225,-0.084928,-0.1446455,-0.029582953,-0.14562286,0.0083681615,0.073767185,-0.12234879,-0.043094102,0.116345905,-0.033951983,0.03019081,-0.0135150915,0.02616616,-0.03412477,0.17449112,-0.012657365,0.019657543,0.000027941012,-0.16485769,-0.07158797,-0.05122344,-0.12284562,-0.043875866,-0.09511471,0.008045604,-0.056235123,-0.013888001,-0.09387986,0.0646385,0.06887739,-0.04243762,-0.021773048,0.11006642,0.028756298,-0.066383734,-0.08238923,-0.04254144,-0.021034375,-0.013125985,0.11458696,0.03589964,-0.023968954,0.11434812,-0.0048023188,0.21964908,0.013252268,-0.05037557,0.053339083,-0.021549901,-0.13330966,-0.009285647,0.006017778,0.099559516,0.014828578,0.01458998,0.09362706,0.0104423985,0.022425825,-0.009302003,0.026477078,-0.15273368,0.0637903,-0.024563022,0.06840109,0.12291688,-0.14817964,0.011773238,0.088238545,0.13280883,0.08675045,0.0024618227,0.13852313,-0.030712664,0.036617912,0.026687736,-0.10180683,-0.15714628,-0.014616987,0.0026927923,0.04964907,-0.025046317,-0.048902683,0.049036834,-0.10032491,-0.0019702318,0.10210807,-0.08362571,-0.04959776,0.072324246,0.06940574,0.098720476,0.031463917,0.13602935,-0.07559646,0.022972902,-0.06494182,0.019022852,0.0010327037,0.0059994664,-0.13929495,-0.027774062,-0.20090099,-0.11934151,0.016246025,-0.085982226,-0.068532676,-0.08057009,0.04885757,-0.013832514,0.049782943,-0.005415164,-0.05585337,0.0916126,0.014941376,-0.10173714,0.07201881,-0.027262455,-0.0016261847,0.07567043,-0.0974537,0.056525707,0.08949611,0.1577359,-0.018728195,0.11253234,-0.084714666,-0.0035570387,0.037467744,-0.007075558,0.026101315,-0.22491135,0.026892373,0.05604495,-0.12505493,0.025776498,0.0043608393,0.045495026,0.041823186,-0.024723532,0.10033477,0.083066374,0.0090892175,-0.019716058,-0.060708113,-0.085357174,-0.052103005,0.03934636,-0.06912747,-0.046241175,-0.08752703,0.057938077,-0.03573685,0.06961915,-0.003366994,0.059709433,0.102384716,-0.09231877,0.023119701,-0.0010902055,-0.096529976,0.19520594,0.0005299805,0.05357756,0.028549822,0.17053145,-0.009067267,0.048555143,0.014902342,-0.06613781,-0.09925455,-0.11162814,-0.027179882,-0.01059821,-0.102097474,0.049262587,-0.015561509,-0.07437723,0.055591878,-0.008043652,0.024592198,0.04393904,-0.05159943,-0.049661867,0.044104856,-0.046350535,0.03704977,-0.011812214,-0.003271128,-0.0783215,0.0000058517417,-0.08580103,0.026013,-0.088877216,-0.071139164,0.06831698,0.073918894,-0.059955675,-0.08295057,0.10208414,-0.0705724,0.06315833,0.14724901,-0.0530775,-0.02332553,0.0047947415,0.06778809,-0.029369984,0.08425274,0.10097228,0.00877812,0.06827872,0.12456967,0.044748735,0.023235012,-0.0014685293,0.059487525,0.08741482,0.0033622265,0.022772081,0.0006259827,-0.036790073,0.1395654,0.16584441,0.12101317,0.09582858,0.045151528,-0.14263386,-0.08357499,-0.014423527,0.049357515,-0.052367806,0.109539546,-0.036906615,0.040369414,-0.11034456,0.07409459,0.066729404,0.18339686,-0.019708388,0.06478879,0.12772904,0.06733119,-0.009767335,0.053720437,-0.011298474,0.022447705,0.034437217,0.20870644,0.0171879,0.118744984,-0.031431954,0.11008326,-0.030105932,-0.020263402,-0.1863399,0.054626733,0.0014462153,0.035624314,-0.059515506,0.11510113,-0.08058024,0.102161735,-0.032846775,-0.13266475,0.04996038,-0.05953778,-0.018876746,0.008893772,-0.023220688,-0.050858635,0.027416293,-0.10860241,0.021208242,-0.08267608,0.06623944,0.03626677,0.020037869,0.032612044,-0.16845587,0.061775755,0.084454514,-0.094949655,-0.051224913,-0.03661205,-0.006247785,0.016519342,-0.09709487,0.07938758,-0.13869718,0.06460629,0.03842349,-0.0052192314,-0.038205698,-0.07498742,-0.0020155828,-0.010026414,0.03494306,0.018347522,-0.011689582,0.106003806,0.10028652,0.08020224,0.07531706,0.051809706,-0.17433074,0.08254301,0.12903601,0.029264737,0.0068780947,-0.016623361,0.18485872,-0.0898817,-0.14018703,0.01913195,-0.0040919823,-0.076196335,0.087531,0.119049996,-0.05780487,0.06852307,0.03836029,0.13286191,0.037304454,0.03211864,-0.007153295,-0.033040218,0.04650942,-0.09939016,0.033330504,0.11263078,0.0335885,0.017642554,0.040865596,0.021531895,-0.011562773,-0.03820386,0.0067874244,0.037147567,0.16476679,0.014022635,0.042436462,-0.12115158,-0.12296897,0.1406804,0.06913437,0.01209958,0.06564705,0.03218423,-0.08325794,0.05351867,-0.0899281,0.1509068,0.002011348,-0.057152417,0.094116144,0.005866301,-0.0034544594,-0.0060816123,0.0059695514,-0.0029856006,-0.09151607,0.08764624,-0.082287036,0.048526432,-0.055984672,-0.095863864,0.18490806,-0.19333926,0.034125753,-0.06504266,-0.16174231,-0.061330426,-0.053219467,0.10258425,-0.01691296,-0.08459838,-0.0046090977,0.068314984,-0.0039373045,0.08048665,-0.08620693,0.052530933,0.082881406,-0.06096454,0.025225904,-0.09068916,0.08434,-0.10078945,0.004044992,-0.06559013,-0.080075495,-0.039808366,0.07687617,-0.02320662,-0.022528764,0.01666889,-0.10259654,0.006741184,0.0008852192,0.08190756,0.0319882,0.020394871,0.009433904,0.028271196,0.046660274,-0.045620576,-0.0728242,0.0017603586,-0.11648101,-0.14771545,-0.0005269644,-0.064075366,0.14684844,-0.048838247,0.07954855,-0.009987762,0.07090543,-0.00458788,0.10703002,-0.00024368173,-0.03543223,-0.109634735,0.055863667,0.03596447,0.056454685,-0.057582445,-0.10368898,-0.055925015,-0.029895075,0.0139718745,-0.009211225,-0.012362343,0.050429452,-0.03213033,0.11567946,0.05302054,0.081769764,-0.040669028,-0.10764108,0.011321485,-0.093613505,0.03999631,-0.0038287132,0.22165559,0.04147071,-0.1582815,-0.11042929,-0.05438773,0.011840733,0.09285885,0.00573524,-0.072412305,-0.11211717,0.022446081,0.044368066,-0.042637173,0.08284208,-0.08921732,0.21628147,-0.13573542,0.010304091,0.00722399,0.060200214,0.04602723,-0.1208883,0.0048545683,-0.014486326,0.15686895,-0.026758678,0.026479695,0.128743,0.06054852,0.13424684,-0.11606784,0.109280474,-0.04538758,0.02831159,-0.056155406,-0.03922754,0.023651417,-0.10631549,-0.06055796,-0.10792535,-0.017584812,-0.030960051,-0.0335745,-0.075240515,0.17993066,0.1359954,0.027233517,0.058855362,-0.15629633,0.08651018,-0.0033556663,-0.16044514,0.09121115,-0.032933827,0.037985582,0.03844254,0.03230978,0.044795353,0.068216674,-0.032600127,0.027759716,-0.07076847,0.06566331,-0.030851346,0.051450104,-0.04803032,-0.20570816,0.06307401,0.11867006,-0.048944015,0.06830507,0.09610054,-0.022669503,-0.14257091,-0.099958956,0.103428856,0.0031532284,0.066857204,0.05619714,-0.09287105,-0.046691295,-0.17218399,-0.045414835,-0.15374014,-0.044790607,-0.00077808223,-0.020536179,0.21492921,-0.0773954,0.024598232,-0.00044520525,-0.07642922,0.0499103,0.10190501,-0.1407557,0.12700386,0.107993305,-0.031140985,-0.058847155,0.018712306,0.13463509,0.0026026452,0.02757008,-0.017966636,0.016407631,-0.08859983,-0.21563557,-0.014484629,-0.14481875,-0.010512663,-0.029213145,-0.01904591,-0.028749187,-0.073034495,0.024344297,-0.01991095,-0.029051797,-0.08124225,0.071292154,0.1953761,-0.003925618,-0.11050228,-0.0026777561,0.09445036,0.08941518,0.098657176,0.09153305,-0.04708685,-0.06784831,-0.028534338,-0.03988879,0.0500726,0.043824952,0.019145941,0.021891395,0.067274764,-0.07833624,-0.056420404,-0.13816385,0.05922328,0.005767414,0.06605689,0.010530567,-0.048860107,0.046079922,-0.024725832,0.036567647,0.07851293,0.016840734,-0.0054429406,0.0958255,0.0029454324,0.07965119,-0.0052461443,0.1525448,-0.05087287,0.06867164,0.001243234,-0.16494314,-0.0056313854,-0.050486468,0.0025251156,0.09614128,-0.011085879,0.16266456,-0.11015491,0.094030105,-0.038292006,-0.044702183,0.07375376,0.01840654,0.09950748,0.121853836,-0.0021742347,-0.002682633,-0.07612085,-0.053940423,-0.15057604,-0.004313599,-0.02992428,-0.14366384,-0.039742336,0.02380846,-0.024214486,0.060499385,-0.033067066,-0.07189711,-0.07801407,-0.025870778,0.0023717808,0.12291554,0.043825865,-0.08873131,0.05135687,0.09366985,-0.08418879,0.03620131,-0.048571326,0.007922498,0.07413797,-0.022739511,-0.21973601,-0.035121176,0.0012283534,0.08129675,0.029567063,-0.09608854,0.002023053,-0.20748818,-0.121884815,-0.050045103,-0.006567411,-0.04961585,0.06288991,-0.025507819,-0.06169211,-0.09770676,0.11002718,0.042046655,-0.02560169,-0.037462145,0.01859865,0.015632182,0.14982238,0.024709107,-0.22604162,-0.15764101,-0.09584512,-0.17179483,-0.00029715308,-0.11805094,0.011639827,-0.049323615,0.0029100573,-0.07282612,-0.09197038,-0.038381267,0.044480443,-0.10267949,0.0007208923,-0.038436398,0.1484686,0.04288051,-0.1505991,-0.012367851,-0.042207938,0.08195494,0.079620875,-0.2632544,-0.13264897,0.12157225,-0.02512997,-0.025585188,-0.035901275,-0.0018106746,-0.021917755,-0.14058891,-0.0060339505,-0.048349883,0.032012913,-0.085583486,0.0033383553,0.055776488,0.14478277,0.16467035,-0.086379535,0.077219695,0.05888086,-0.02038236,-0.15672392,0.055071436,-0.022075152,0.062322207,0.11958115,0.11018436,0.029517625,0.011688142,0.015408033,-0.17369497,-0.042136822,-0.075141974,0.011386829,0.026727593,-0.028815003,0.0032027662,-0.020867074,-0.12527628,0.0621088,-0.06688619,0.003523112,-0.06812504,-0.10883956,0.019632151,-0.09075484,0.14164945,-0.017408274,-0.011467509,-0.02452283,-0.22890504,0.088065445,-0.17203729,-0.20037192,0.07161237,0.075472556,-0.033964857,0.028623847,-0.004325523,0.039840918,0.06761185,-0.104274824,0.06711822,0.0093852095,0.033461828,0.09220258,-0.14509624,-0.17441566,0.06625974,0.099451765,-0.017543228,0.07301768,0.0353356,-0.043869898,0.0774874,-0.072191596,-0.04516255,0.014800356,-0.12521157,-0.1480112,-0.064271405,-0.017763022,0.050692372,0.058222447,0.07609608,-0.07270111,-0.0066818763,0.0681269,-0.032942943,-0.09149802,0.11096848,0.031395484,0.05522142,0.12462676,-0.012324177,0.056926172,0.024480058,0.04086357,-0.02785208,-0.020758068,-0.051941007,0.13862373,0.10552372,-0.09124929,0.12693343,-0.022217179,0.03712322,-0.08845351,0.046428718,0.0022310412,-0.009784789,0.116006784,-0.0060503986,-0.02591494,0.11129018,-0.015341793,0.009816257,0.14286442,-0.01653166,-0.039843097,0.106899485,0.022635989,-0.102584444,-0.0099645555,0.114916764,-0.018788233,0.09187547,0.11924223,0.16991492,-0.06468336,0.010053867,-0.040730573,0.003095719,-0.05419799,-0.0073963595,-0.014467848,-0.16238496,0.08165618,-0.009096948,-0.020065064,-0.10633431,-0.028294196,-0.053775635,0.0785927,-0.009554702,-0.034891095,-0.020513378,-0.013465725,-0.1288753,0.097748026,-0.02867177,0.059938263,-0.116585486,0.13497673,0.08716653,0.009474302,-0.06696245,-0.05119382,0.021936672,0.013192793,0.06652819,-0.11562461,0.009961327,-0.107314885,-0.08510512,0.005863688,-0.00043845843,0.08346232,-0.12441629,0.08251711,0.113101296,-0.06216029,0.056895956,-0.07618324,0.045821574,-0.046260424,0.035148025,0.12902267,0.072823025,0.015637213,-0.009800986,-0.067400135,0.150391,0.12364271,0.0036492632,0.00906579,0.04249731,-0.14187515,0.051975597,-0.12317975,-0.04190767,-0.027435804,0.07364655,-0.013348994,0.014153903,-0.057867594,0.0017236033,0.015942022,-0.17291595,0.09860136,0.19037835,0.111821115,0.046916723,0.006431293,0.01886458,0.012799933,0.07355864,-0.018263401,0.03621646,-0.003720886,-0.009850951,0.028708447,0.058902796,0.046078566,0.0080338,-0.07636408,0.12678683,0.06145172,0.09934796,0.0018568442,0.11658743,0.05608976,0.054673243,-0.08958277,0.029033395,0.029261563,-0.078746215,0.07012421,-0.010337935,0.07976009,-0.11007887,0.1104248,-0.1010503,0.044859003,-0.025576597,0.08341976,-0.10845973,0.02408789,-0.063148364,0.019469026,-0.07946758,-0.09508623,-0.042307656,0.010948373,0.016106792,0.017062468,0.15633614,0.08113801,-0.11715276,-0.11459339,-0.08282184,-0.07465107,-0.11799627,-0.057700377,0.042868543,0.020679958,0.040687364,0.13951004,-0.057048693,0.03938502,0.0020586695,-0.15711619,0.098865725,0.02935236,0.07311901,0.049624834,0.064639896,-0.065920785,0.11436154,-0.010686028,0.08385045,-0.03281378,0.047812607,-0.092902616,-0.11473712,-0.004937224,-0.05681883,-0.030540835,0.014204238,-0.20510422,0.0053966492,0.09448751,0.029248504,-0.16467078,0.07110776,-0.16747692,-0.07100208,-0.0025159114,0.068239085,0.029446589,0.0888969,0.022835666,0.14065996,-0.046697423,-0.012182124,-0.0562314,0.01732167,0.10979554,-0.13508576,-0.071393415,-0.01619299,0.02597795,-0.039716005,-0.09422586,-0.07217086,0.002076644,0.034355048,0.08211935,-0.12801895,-0.0639824,-0.030982997,0.13580813,0.07523253,0.014046159,0.10978565,-0.020665077,0.13501006,-0.03850642,0.09101598,0.09385775,-0.03577838,-0.056411836,-0.104940146,0.0048824814,-0.0641976,0.08351031,0.04443406,-0.0052866084,0.051729817,-0.049236294,-0.12843232,-0.049641967,-0.08438389,0.04146788,0.103250355,-0.10133453,-0.073929295,-0.07201272,0.0025447,0.09396577,0.017974649,-0.016595842,0.10839787,-0.1329714,0.07939347,-0.10426174,0.12441522,-0.12444324,-0.06107974,-0.11562788,-0.076778874,-0.11028379,-0.104087226,-0.02415877,-0.055096395,0.015576054,0.0054195705,0.08567473,0.12066863,0.1523871,-0.12854427,-0.018299878,0.008241786,0.026605954,-0.07589409,0.015895009,-0.059979882,0.00054791704,0.081469335,0.04155083,-0.08739558,0.030796053,0.013575835,0.11475995,0.0059664138,0.11374148,-0.07345594,0.07960306,-0.06302401,-0.25834188,-0.041990396,0.03610055,-0.034550246,0.052794214,0.09285466,-0.030219508,-0.05227745,0.013230663,0.042542804,-0.027493857,0.06907005,-0.025657348,-0.007711897,0.122781105,-0.11797456,-0.03112811,-0.10388766,0.13572757,0.11111035,0.049803678,-0.15793994,0.047308456,0.07165626,0.028828776,0.11191566,-0.097333424,0.08358038,-0.05705326,-0.0017893192,0.01637367,-0.08587723,0.10535724,0.036561713,-0.027615115,0.0120597165,0.017980076,0.07243105,-0.019488407,-0.061081346,-0.07037353,-0.18586838,0.01084576,-0.0684478,0.13036346,-0.0424766,-0.053443234,0.110671796,0.02788857,-0.077719286,-0.11847878,-0.06184328,0.048587903,0.033986643,-0.07043712,0.006910517,-0.15490684,0.047643937,-0.029427899,-0.10773587,0.040562876,0.050480805,-0.032222103,-0.013361115,0.044923924,0.033932805,-0.113676235,0.1568867,-0.027305286,0.02367915,0.012380742,0.045903556,0.0004929136,0.10002254,-0.018441102,-0.013998271,-0.03504345,-0.013815199,0.009561004,-0.041926038,-0.0029179077,0.028944362,0.04113351,-0.01882728,0.13184635,0.05441271,0.011362731,0.05266753,-0.25996867,0.038495682,0.103638634,-0.10207091,0.01220114,0.10218357,-0.05411231,0.009166187,0.11321452,0.08866796,-0.04367012,0.0057678097,0.103898965,-0.043512363,-0.08146899,0.021701561,-0.00093513535,0.065876916,0.033509135,0.049570944,-0.0663496,0.122556455,0.052780423,0.057948124,-0.046023786,0.09696344,-0.106543325,-0.04171904,0.1026557,0.052246615,0.118380666,0.089166515,0.16240461,0.1699189,0.05451034,0.044589646,0.16541569,-0.14630575,0.12246536,0.050557833,0.05836728,0.056971446,0.07516643,0.089467995,0.025737643,-0.008992435,0.007894097,-0.03947947,0.0487713,0.006310579,-0.116324864,0.029424451,0.13350433,0.005604697,-0.1712902,-0.010132995,-0.0027982292,0.007681614,0.026472224,-0.10469525,-0.15699719,0.067463316,0.024708519,-0.0501226,-0.014585045,0.0010544622,0.027754007,0.0376332,0.012217392,-0.035225987,-0.1057877,0.07548118,0.08892432,0.046022087,-0.0018665282,-0.036874443,-0.04288316,-0.033733297,0.037755962,0.11520337,0.008625173,-0.025624197,-0.20714064,0.23010218,0.06945758,-0.25217766,-0.04032256,-0.0475845,0.051277526,0.057636544,-0.07255475,0.07226953,0.008816415,-0.106659524,0.08135579,0.07364391,0.05589124,-0.022233091,-0.16897112,-0.072292835,-0.003183411,0.16353597,0.08240826,0.06170209,0.007042657,-0.03162681,0.15384945,-0.040557954,-0.099904805,-0.039061964,-0.06699799,-0.02825527,-0.14141275,-0.16602132,0.03301353,-0.14173645,-0.07801851,0.11897445,-0.042435337,-0.09593741,0.04364086,0.05535801,0.04262613,-0.03386028,0.015862837,0.05971952,0.09500973,-0.049548402,-0.068100445,0.16751675,-0.045555945,0.025829589,-0.08733442,-0.0239146,-0.07476814,0.12473582,0.08640191,0.05180133,0.015360779,0.065457314,-0.13322347,0.050934657,0.055671643,0.04899627,0.056891173,-0.04903339,-0.03507928,0.027277807,0.036346745,0.11548447,-0.31558806,-0.08626508,-0.026295742,0.07293411,-0.079097934,-0.034992367,0.10720532,-0.15632217,0.04956157,0.017712029,0.019443436,-0.0046913847,0.058251463,0.01656565,-0.09349388,0.00082802615,0.110415675,0.030007584,-0.012885867,0.08235865,-0.092631064,0.056307,-0.04922745,-0.106615335,-0.19148523,0.06244358,0.044632208,-0.01527514,0.18584165,-0.06313286,0.18973078,-0.082069695,-0.13314906,-0.15705065,0.1563796,0.096256524,-0.06841338,0.014465255,-0.041770324,-0.07472116,0.08776986,0.0018421636,-0.029707855,-0.035214867,0.11842919,0.054579508,-0.053455986,0.080203615,0.077339,0.09479297,-0.09573175,0.11725157,-0.11705407,0.17289305,0.07305729,0.11550851,-0.06295976,-0.060550433,-0.0047935443,0.14928049,-0.06886676,0.07880171,0.08272011,0.02154164,0.00021902195,0.12602693,-0.020805657,-0.079889864,0.05079909,0.013176111,0.16288555,-0.13777697,-0.047420256,-0.11186259,-0.043148912,0.01780323,-0.09066321,0.018234007,0.09245253,-0.012084839,0.07761601,0.08954726,-0.052819084,0.09415212,-0.042021066,0.05599139,0.10107626,-0.025166059,0.023906399,-0.07181792,-0.11815545,0.0120017985,-0.03854797,-0.032102983,-0.091496326,-0.005883548,-0.07464527,-0.040921092,0.067252584,0.032456566,0.031898726,0.05811411,-0.008263626,-0.051963884,-0.093480825,0.06427548,0.13735078,-0.0594017,0.10408733,-0.14897837,0.059618793,0.03420179,0.23393853,-0.116376765,-0.20213659,0.06753154,-0.06321471,0.00054971484,-0.030420823,0.06252288,-0.080903664,-0.013632993,-0.05674872,0.064540945,0.15040335,0.021176375,0.063153684,0.09688314,-0.017891888,0.07700391,-0.12846346,0.052335087,-0.062223922,0.062046308,-0.023987168,-0.036904447,0.03424845,0.057658035,0.17368196,0.013918153,-0.0048252423,0.042658817,-0.0039249538,0.00087820034,-0.13822521,0.051183775,-0.13390763,0.054205477,0.050219417,-0.0009074272,-0.10775655,-0.034145683,0.01550321,-0.08076167,0.07601252,-0.044565145,0.10416733,0.06954673,-0.05126189,0.11555943,0.051880896,-0.15953626,0.11048112,-0.17333196,-0.006556969,0.07680776,-0.01944266,-0.04103807,0.11858815,-0.010156393,0.0060818093,0.09566731,0.03521483,-0.070526294,0.046769597,0.011233852,-0.16108388,-0.12133928,0.075247616,0.009003903,0.08246546,-0.070969366,0.099562004,0.08165711,-0.05493397,0.0016197591,-0.11017279,0.14186499,0.11939924,-0.12265742,-0.115465395,0.0002354157,0.03710639,0.06241665,-0.13069859,0.13049981,0.15869057,0.012187526,0.11110411,-0.061435096,-0.097759195,0.09984935,-0.009153566,-0.013079915,-0.015339779,-0.03285503,0.0985715,0.0695341,0.030588437,0.008904773,-0.016940163,0.03514129,0.061257415,-0.0018829578,-0.14083636,0.029921275,-0.08668344,-0.030405952,-0.18150747,0.10639719,0.0009187315,-0.0023633384,0.06622352,0.0087909885,-0.11273221,-0.025085835,0.030562159,-0.012400437,-0.0599939,0.037303723,-0.01933475,0.036226343,-0.009880632,-0.07398029,-0.09128277,0.033640515,-0.04723265,-0.14659093,0.07887478,0.122230664,0.047625843,0.02580007,0.08960958,-0.023156308,0.039019,0.051161006,0.003830169,0.07608345,0.13757843,0.050748356,0.050868265,0.061921235,0.12281151,-0.007963534,-0.0044622896,-0.07684476,-0.037187684,-0.07679118,-0.21056387,0.010349696,0.031588856,0.013887337,0.041511204,0.09876998,0.010844381,-0.06290814,0.021458449,0.008868486,-0.1199629,-0.08237116,0.040629476,0.09971909,0.012140057,0.18169443,-0.060677286,-0.05462007,0.057676926,0.047287237,0.05987729,0.030000104,-0.08741015,-0.070453346,0.044362966,-0.1572594,-0.1600591,-0.0017367544,-0.06518905,0.095826976,0.11653805,0.07727865,0.13654223,0.08668387,0.10765807,0.006962298,0.11427089,0.05542228,0.019942157,0.029349612,0.1217878,-0.03877779,0.018671008,-0.008728286,0.028633539,-0.054028135,0.1664813,0.0487294,0.07299579,-0.07087149,-0.07977267,-0.091732986,-0.033868972,-0.050086368,0.05099998,-0.0005227329,0.059605956,0.008802143,0.15646492,-0.102491826,0.033425927,-0.09861815,0.023343205,-0.081257544,0.19955428,-0.03220955,0.036742773,-0.09124819,0.03703882,0.079751335,0.24312998,0.033549532,0.007330605,-0.06758499,-0.0060516866,-0.019406972,0.13472152,0.042072102,0.11539242,-0.1479786,-0.0009538293,-0.058310702,0.118943304,0.0071157655,0.017574957,0.076246195,-0.10415508,-0.038686365,-0.100990675,-0.06841082,0.041834716,-0.103782445,-0.07389901,-0.12106997,0.106278054,-0.07572345,-0.0986477,-0.0010004108,0.084986985,0.014843243,-0.15086225,0.043967206,0.06904476,-0.06407845,0.068113014,0.20888357,-0.26928693,-0.0029841,-0.059882756,-0.058163833,-0.031632796,-0.050698556,-0.037949502,-0.07554404,0.029825702,0.07807305,-0.09609223,0.1052617,0.07311628,0.011550787,0.07920039,0.058528796,0.0043443968,-0.013484516,-0.06938498,0.036911346,0.010710964,-0.07833957,0.107269906,-0.0062241675,-0.008631109,-0.001280707,-0.0360222,-0.17400749,0.0531672,0.033072323,0.045760814,0.06324697,0.07888576,-0.056530986,-0.008150385,0.060813483,0.0507367,0.018872423,-0.12697923,0.100500196,-0.10035929,-0.07767905,-0.09422639,-0.13357739,-0.07544115,-0.12421255,0.06757662,0.18575661,-0.062351506,0.043933272,0.010863328,0.08185014,0.110571906,-0.13586603,0.13215378,-0.08575528,0.0767214,0.1202373,-0.036296777,0.021563822,0.10614864,-0.010218851,0.051514413,0.14106871,0.059078254,0.035726693,-0.09069394,0.011355556,-0.05987169,-0.18506426,0.1912313,0.100515895,0.18908346,0.0446875,0.023601623,-0.11345755,0.03426346,-0.11553189,0.07023539,-0.21834612,-0.0003371168,0.03155902,0.017471427,-0.1233117,0.018164586,-0.005520005,0.059284788,0.11397575,-0.057124406,-0.08644476,0.004478821,-0.026431182,-0.063827954,0.032933686,0.11759387,0.06479661,0.017010046,-0.02571189,0.038767204,0.07909262,0.019382024,0.057725422,-0.042663094,-0.08746297,0.08234664,-0.0009852267,0.005209972,-0.117534444,0.018538985,0.057354625,-0.030593319,-0.019373355,-0.01280937,0.06871171,0.09606706,-0.021358958,0.008253289,-0.19947386,0.17930417,0.002175323,-0.07049073,0.072427504,0.057939265,0.033690482,0.044988077,0.013656396,-0.17678173,-0.017997688,0.094049655,0.0067595537,-0.040941995,-0.078428745,-0.016748566,0.04614222,0.02483546,-0.08386093,0.16208452,0.086204685,0.00033683382,0.0052136094,0.09316009,-0.05476523,0.15346187,-0.11657373,0.11116557,0.117031254,-0.04307445,-0.0016794013,0.04302591,0.07644679,-0.060163625,0.04244859,-0.028120017,0.04408658,-0.076493174,-0.17927606,-0.0031032076,-0.11001295,-0.112126425,0.19083205,0.1309995,-0.16498238,0.10900961,-0.0682031,0.04020758,-0.03180391,-0.027658565,-0.15079117,0.17102307,-0.08054789,-0.08166912,0.150411,0.109644495,0.014411973,0.036806922,0.071211606,-0.0122274,0.024453204,0.0077624684,0.032961823,0.047077987,-0.003117497,-0.09057542,0.07495929,-0.11703296,0.026092025,0.09557839,-0.018040799,-0.17192878,-0.101631455,-0.032629777,0.042540286,0.15038624,-0.12605663,0.084450446,0.086082615,0.016296467,-0.0074618906,0.08693272,-0.01488012,0.040436383,-0.005965571,-0.06064597,0.057179887,-0.0290644,-0.118386045,0.067164764,-0.013730698,-0.037053272,-0.0008936488,0.064534,0.16517732,0.08495456,0.066124186,0.10107891,0.06291514,0.15969715,0.08349892,-0.14716029,-0.1324282,0.04395229,-0.029188592,-0.08130726,0.054095738,-0.009974224,0.10740679,0.03155078,0.11143616,0.08428184,-0.047133487,-0.05987779,0.10575028,-0.14570925,-0.08315072,0.04806191,0.07339439,-0.22640999,0.06068419,-0.04689333,0.016427036,0.014950412,0.1014472,0.091339864,-0.06647838,-0.0042300676,0.030256787,0.004138771,0.003524209,0.08133666,0.04504594,0.022062995,-0.08157999,-0.17542723,0.049149353,-0.05133215,-0.11873506,-0.026290266,0.057900015,-0.08723231,-0.00998407,0.03754977,0.0022163999,-0.043422323,-0.0035484137,-0.009752298,-0.0046860524,-0.13567689,-0.14451201,0.04264828,0.076721594,-0.06570521,0.017983198,0.0837643,-0.036803294,0.111925766,-0.02218817,-0.008579517,-0.14758657,-0.103591725,-0.072760046,-0.020451905,-0.03827177,-0.12318568,-0.037680056,-0.023258379,-0.04710521,-0.041997716,0.026382675,-0.017128583,0.047407378,-0.095473774,0.018817626,-0.06580695,-0.22363453,-0.12539382,-0.030513084,0.06180761,0.019682828,-0.1765151,0.011554554,-0.023479214,0.09209256,-0.10034683,-0.013470363,0.07915131,-0.052061286,-0.023992922,0.101568766,0.10349463,-0.016889662,-0.018431157,0.03831142,-0.087495975,0.1078369,0.011847254,0.0419264,0.09754878,0.11174007,0.039895035,0.12833415,0.07956902,0.018010464,-0.03635058,-0.008457939,0.033292174,-0.053946145,-0.008132986,0.22608995,0.046600405,0.083550744,-0.106300116,0.066954784,-0.07010499,0.047208797,0.13236554,-0.06830556,-0.034584448,-0.013563541,-0.039981868,-0.05730723,0.043171234,0.027121296,0.22968875,0.06261706,0.13471846,0.01020681,0.065374374,0.06607033,-0.087777235,0.12299805,0.012267082,0.04192386,-0.05238392,-0.09885727,-0.0510634,-0.14877214,0.08012,-0.04109645,-0.02957751,-0.02250469,0.09547853,0.048397794,0.009075559,0.025791895,0.06261354,0.12301841,-0.09239163,0.07578311,0.09806446,-0.014774759,-0.10470762,-0.0030395922,-0.13238974,0.049798403,0.06361161,-0.060487278,-0.030589856,-0.084599055,0.13323396,-0.14533894,-0.0041668927,0.16910784,0.07714954,0.04303938,-0.024579845,-0.14647245,-0.09024291,-0.044746503,0.026811035,0.028598968,-0.11951409,-0.08050184,-0.066533215,0.06878449,0.053409286,-0.16886619,-0.13433523,0.010509012,-0.08626301,0.12988321,-0.064552926,-0.110809155,-0.06139377,-0.07239085,0.022734087,0.07442328,0.0787981,0.020138739,-0.13739105,-0.01010076,-0.019343654,-0.024730675,-0.024036778,0.027746482,-0.0011210695,0.12222715,-0.049842246,0.101650335,-0.13918065,0.071612865,0.1138349,0.015281094,0.08500473,-0.16939455,0.015175232,-0.11161084,0.077530265,0.10335675,0.0709701,-0.036563933,-0.0034740153,0.10764732,-0.014922645,-0.058960736,-0.046027817,-0.007928682,-0.1019009,0.102843456,-0.072065525,0.009163834,0.0040124785,-0.032268576,0.1530583,-0.011080793,0.017885312,-0.081584685,0.020132693,-0.053737197,0.014977944,0.078503646,0.042575166,-0.047524106,0.020129154,0.0040939045,0.04953564,-0.06244615,-0.025138091,0.017816994,-0.040417485,0.055282526,0.015459162,0.1888134,0.109322384,-0.08272097,0.025562946,0.10442411,-0.021334132,-0.026961492,0.07686906,-0.036080208,0.012532576,-0.11489542,0.04534189,0.13227679,-0.0159338,0.071121775,-0.06544778,-0.11564513,0.1685294,0.08780075,-0.10356695,0.0424925,-0.022192055,0.098423086,-0.15985112,0.12079115,-0.027203945,0.017476546,-0.099313185,-0.045612395,0.053349286,-0.18501174,0.009142854,0.022686925,-0.01428385,0.011111025,0.023108535,-0.11526628,0.03577553,0.031014347,0.005254595,-0.104194045,-0.049520474,-0.09113283,0.024527045,-0.12800348,-0.039253086,-0.075344175,-0.04755902,0.010913207,-0.0015432796,-0.030431611,0.092697084,0.07728902,-0.088699445,-0.044589117,-0.061710823,-0.026443271,-0.13181145,-0.096506916,-0.019347737,-0.0714601,0.02379392,-0.08449057,-0.08937496,-0.018270131,0.011685946,0.036705874,0.0207547,-0.03402866,0.06061619,0.009417578,0.1133548,0.07484495,-0.0028814904,0.0110301515,-0.040931083,0.0057879747,-0.19168417,0.14567238,0.008179868,0.038310844,-0.019081136,0.08731729,0.025322028,0.049862213,-0.021976775,0.24913064,0.013419786,-0.01250291,0.021274991,-0.14802955,-0.018152222,0.14651239,-0.13318035,0.013546124,-0.070205085,-0.03898403,-0.01396594,0.0324531,-0.063309036,0.018923232,0.06377163,0.052149717,-0.021132896,0.08121371,-0.048440997,0.016867395,0.068187416,-0.072952196,0.0023377677,0.052567992,0.1531424,0.005451341,0.032686643,0.023765448,-0.14655164,-0.015197897,-0.065626554,-0.12274594,0.01553287,-0.054328445,0.11278979,-0.060727455,0.018471655,-0.04291629,-0.0523909,-0.0073431786,0.014968369,0.07565359,-0.06736529,-0.08920117,0.06337863,0.0640231,0.037788708,0.07482799,0.076290734,-0.09334266,-0.0490179,-0.0724167,0.030416586,0.021070044,0.11634833,0.035703585,-0.081008255,0.01992674,-0.03005078,-0.051139753,0.15648104,-0.0065092617,0.15418333,0.09874747,0.029989375,-0.14466299,0.049274743,-0.049848676,-0.038514264,0.052779898,-0.03528354,-0.003915582,0.007425442,-0.106807515,-0.14717756,-0.03050557,-0.018844094,-0.06514625,-0.092279516,0.05855068,-0.035418954,-0.08459559,-0.012825509,-0.039634142,-0.03108421,0.031162955,-0.06317,0.0022706338,0.1722773,-0.016071467,0.10619373,0.06605936,-0.12326641,0.12681216,0.08351564,0.048081253,0.008850345,-0.03039461,0.044617202,0.041991167,-0.094219536,0.013346906,0.056365512,0.12798658,0.19837394,0.072406486,0.04829386,-0.05522987,0.013410568,-0.01960451,0.03348749,0.045889642,-0.0154022705,0.023194775,-0.0072716097,0.08326353,0.0027368856,-0.07673278,-0.023765305,0.027755508,-0.027882636,0.0614971,0.06053929,-0.028685581,0.08107802,0.09228732,-0.053639825,-0.0527597,0.009562435,-0.045823075,0.076911695,-0.13861647,0.09362609,0.04824408,0.06814012,0.14467454,0.058060776,-0.013125395,-0.045474544,-0.053503435,-0.020283863,-0.006009278,-0.0015525193,-0.16618063,0.09795777,-0.044763476,-0.18076034,-0.10632459,-0.028615355,-0.01955055,-0.06253044,0.12699248,-0.009963627,-0.06432306,-0.011263785,0.07590321,-0.004424825,0.06354233,-0.00015042667,0.06046688,0.0007950643,-0.100880325,-0.008527076,0.09588971,0.046215408,0.06379047,-0.12529008,0.040129483,0.027469996,-0.06423272,0.09642297,0.07910725,0.029928958,-0.110731,-0.11680371,-0.12954882,-0.047772013,0.08065664,0.071550734,0.027148807,-0.11675408,0.0029981218,0.018828308,0.09983265,0.10951272,0.13186324,-0.036794484,0.06303007,0.18914835,-0.033966582,-0.026321072,0.09896897,0.031289656,-0.0073211663,0.0088093,0.0639734,-0.14585806,-0.025495186,-0.009994087,-0.048531663,0.10564598,-0.06771674,0.052050926,-0.07937052,0.01793949,-0.25743386,0.14508219,0.13140912,-0.005893861,-0.06423756,0.11770033,-0.060930736,-0.037435215,-0.011930197,-0.07935124,0.06901378,0.02270746,-0.04628887,-0.08524015,-0.03403413,0.055580612,-0.14619824,-0.15436237,-0.10780135,-0.089550845,0.122258924,0.12239177,-0.006196122,-0.03919476,0.06888184,0.089148186,0.058781203,-0.14324273,0.018756157,0.006864739,0.02252531,0.05633071,0.007133179,0.07220526,-0.08221313,-0.056609686,-0.010222982,0.03279971,0.11201342,0.015732046,0.03567341,-0.011230422,-0.03002432,-0.015120583,0.12524313,0.049251415,-0.0024015035,0.14513701,0.119017325,0.0428442,-0.031112066,0.008243874,-0.06591471,-0.030268513,0.12538137,-0.017698484,0.15746896,-0.13039471,0.014926746,0.00030557148,0.01124763,0.011056174,-0.034870416,0.084240384,0.08504118,-0.008945612,0.071741626,0.05291604,0.08795271,0.17622572,0.064935416,-0.100316,0.046383582,0.19449757,0.09722352,0.115326196,0.01073656,-0.018976456,0.0070652217,-0.13000634,0.048037205,-0.17221487,0.0035422805,0.028256988,-0.03390545,0.041085992,0.08926975,-0.019179355,0.07651055,0.020729894,0.048426464,0.050278388,-0.010444064,-0.046394978,0.014414844,0.084375136,-0.037044086,0.03315776,0.0602969,0.021335343,0.12118263,0.04764485,0.060218055,0.03374738,0.16896018,0.11587028,-0.0076905303,0.08155859,-0.06314052,0.03243259,-0.13152485,-0.0010791167,-0.11626656,0.0046962616,-0.0006965394,-0.1506541,-0.08882844,0.0748045,0.052994605,0.05669829,-0.036325466,0.008139294,0.09716161,-0.0087245945,-0.012661532,-0.015205649,-0.052821808,0.15344582,-0.11757728,-0.043396685,0.1352566,-0.020433145,0.026776198,-0.029828962,-0.024754567,-0.015443342,0.041555777,-0.022569014,0.033265106,-0.062133748,0.02503785,-0.054712318,-0.075880185,-0.10946741,0.06531781,-0.01021321,0.05822764,0.025010308,-0.02796436,-0.1222472,-0.089189224,0.084428035,0.06692469,0.03639481,-0.09346457,0.08260053,0.15629627,0.0015411318,0.16528924,0.044944853,0.16919494,0.08527195,-0.12349202,-0.14880513,0.09312556,0.13242437,0.1468774,0.148518,-0.07574436,-0.06239609,-0.0045115585,-0.011271537,0.049928304,-0.09170706,-0.034997836,0.030113505,-0.056981593,0.07313966,-0.0777288,0.089451864,0.0850003,-0.08112042,-0.03644273,0.047131244,-0.06181587,0.09955754,-0.16497545,-0.0009863127,0.025835916,0.093799025,0.016197493,0.051489376,0.025437512,0.062853165,0.007291759,0.110299,-0.025915723,-0.025912983,0.016100412,0.03826825,-0.024824759,0.0022369593,-0.015808508,0.012574468,-0.1753238,0.1289379,-0.0134192705,0.09916165,-0.052534062,0.08274092,-0.090855986,-0.027236396,-0.01025233,0.14220831,-0.026948234,-0.006130911,-0.057750363,0.12334918,-0.054817524,-0.044991802,-0.07115718,-0.07973976,-0.028002784,-0.04448034,-0.06995021,-0.03480785,-0.025092185,0.00816995,-0.05511279,-0.09274609,-0.016845923,0.08851829,-0.07743291,0.04705853,0.06408777,-0.01127018,-0.056523383,-0.013100296,0.05235772,0.043203447,0.14492944,-0.033422574,-0.16914165,0.013636447,-0.06587066,0.07488553,0.036730517,-0.030950265,0.18034753,0.08041177,-0.08656763,-0.09977799,-0.018977404,0.03474591,0.017124278,-0.029166546,-0.091255344,0.029021949,0.18884303,-0.031480983,-0.006576612,0.019611968,-0.048695132,0.04456957,-0.08514679,-0.08157267,0.070210844,0.040458206,0.03835837,0.1517228,-0.03603581,0.05169301,0.006938978,0.054962564,-0.14978877,-0.06064425,-0.042798333,-0.0046582436,0.04507567,-0.06562238,-0.040166885,0.14932033,0.031292252,0.0104798,-0.0596898,0.0065095127,0.030555759,-0.0056528407,0.016667312,0.002493303,0.03550105,-0.14261584,-0.011922437,-0.11580007,-0.010279588,-0.20982717,0.034372643,-0.007845308,0.06399194,-0.086916916,-0.0010626252,-0.06697703,-0.024572577,-0.010853849,0.012336919,-0.058701437,0.061860144,0.020999592,-0.1245741,0.04924064,0.06656518,0.024468826,0.033416398,-0.007774851,-0.008550196,0.009810834,-0.047233514,0.0015404143,-0.007807205,-0.008985602,0.1376233,0.022482812,-0.00983038,0.049110968,0.08148453,0.0115078725,0.060681358,0.009233879,0.03875239,0.031038992,0.009967166,0.012487767,0.081554554,0.014499319,-0.119347684,-0.060336877,-0.04619979,-0.09736135,0.045671247,0.08960706,0.1225543,0.039632477,0.0122711975,-0.026641436,-0.039759748,-0.07258086,0.017419558,-0.024655063,0.02425185,0.07603711,-0.10269882,0.16824,0.07708806,0.013498916,0.10191313,0.050472923,0.11393725,-0.09202704,-0.016421193,-0.12619773,0.16987456,0.083269015,0.07548522,-0.030242914,0.13447854,0.020766612,0.052107517,-0.13929348,-0.00021379076,0.012110693,-0.019023413,-0.050052688,0.08966451,-0.06453776,0.025984043,0.0535418,-0.051833373,0.14063092,-0.15674122,0.04064001,-0.011195345,-0.0127567025,0.11211885,0.020307135,-0.044117935,-0.20416541,-0.0029218355,0.0013543727,-0.015328344,0.19608565,0.12539549,-0.091001995,0.1421464,0.016971786,-0.021921081,0.030618802,0.020417241,0.040077694,-0.040485375,0.0021686873,-0.09602707,0.18892476,0.049175337,-0.0008604054,-0.0045671156,0.27014372,0.07711023,-0.07845901,0.048341405,-0.04141058,0.01433421,0.12154096,-0.006495464,0.15422963,0.070302635,-0.18681984,-0.062354896,0.014316743,-0.13384525,-0.055461083,-0.072721705,-0.060540892,-0.11532064,0.06837629,0.10450718,0.08102224,-0.0063784574,0.00863737,0.13014649,0.14325884,0.10805426,-0.00956949,-0.0071263527,0.06136341,-0.07741989,-0.07155392,-0.05042464,-0.14335786,-0.15755323,0.12769063,0.05950272,0.091108054,0.043205317,-0.029784901,-0.042670406,0.0752379,0.045194805,0.026848644,-0.11900444,0.046881955,0.048495594,-0.0814659,-0.05649248,-0.02981115,0.09380074,0.09442607,-0.017419137,0.041249607,-0.019960502,0.075232185,-0.045313705,0.009011989,0.0133548705,0.013119215,-0.039084665,0.09679272,-0.12094081,-0.04494168,0.026719034,0.028839465,0.043127652,0.0378254,0.026925718,0.027120596,0.05871143,-0.011327906,0.042295083,0.082764074,-0.025237642,0.015796406,-0.015280876,0.040636607,-0.027186574,-0.019760834,0.06340901,-0.02565665,-0.08038944,-0.056863006,0.05494381,0.003096973,0.084893554,0.010925542,-0.027407266,-0.015463436,-0.05885976,-0.07237704,0.076692894,0.060836416,-0.001105258,-0.023651741,-0.014016961,0.12185387,0.043720003,0.0052259653,0.031139657,-0.02167969,-0.042607006,-0.04626243,-0.016324896,0.070125595,-0.07841312,0.07343284,0.034925055,0.016078338,-0.107940756,0.044457413,-0.018333852,-0.005815834,-0.014163871,-0.018497972,-0.116244756,0.13608804,0.06009452,-0.12210735,0.092097975,0.115662836,0.06516817,0.024238383,-0.007699414,0.07587362,-0.011918787,-0.06289155,-0.08873366,0.009370164,-0.1418213,-0.06857564,0.082404435,-0.072460145,0.012414172,-0.116562754,0.031138508,0.04514362,0.014461709,0.07654254,-0.012062858,0.060906775,0.053608708,-0.00055956823,-0.03465338,-0.03313306,-0.03027803,-0.14635085,0.07377075,-0.05568491,-0.16976024,-0.03763533,0.024653617,-0.017402407,0.051360305,-0.016051926,0.06426174,0.097437344,0.10145187,0.008141954,-0.00029116316,-0.03858028,-0.061386358,-0.1054548,0.093200095,-0.03260954,0.010628666,-0.034369275,0.054687344,-0.021419154,0.111488625,-0.050815362,0.029970512,-0.076736696,-0.058082413,-0.11616825,0.057764165,0.16267312,0.16376075,-0.04928733,0.1129304,-0.025089389,0.025525989,-0.000003625993,0.00030426125,0.03496006,-0.0089524,-0.053211015,-0.025496854,0.11553091,-0.027912173,0.08637228,0.05016772,0.058786068,0.013758575,-0.10600052,0.039708484,0.0642935,-0.10294387,-0.049862217,0.039944433,-0.11965166,-0.03942803,-0.024719624,-0.052746788,0.020021915,0.0016388581,0.07587458,0.009433109,-0.13241388,0.12311971,0.05432673,0.047549885,0.06683897,-0.17869042,0.18256068,-0.10327062,-0.053324856,-0.039112046,-0.06733545,0.106643036,-0.02465666,0.035335626,-0.12755358,-0.003745504,0.08248111,0.11130018,-0.05043677,0.09353458,-0.053703632,0.07216496,0.012176747,-0.011470624,0.01661469,0.116632864,-0.018109176,-0.006010746,0.01085905,-0.19727995,-0.03158708,0.0011878023,-0.14464992,-0.18301818,0.05589964,-0.111123025,-0.07700961,0.048490427,0.06283011,0.15792969,-0.24154945,-0.03511321,-0.06064697,0.07893541,0.036461458,-0.12511164,-0.073116325,-0.05532583,0.01496307,-0.05066888,-0.0332365,-0.036707364,-0.065450564,0.047800805,0.072888926,0.011701854,-0.069967404,0.011871114,-0.031719,-0.14836372,-0.1410513,-0.06756344,-0.1002774,-0.06678109,-0.046801116,-0.010276905,-0.02987381,-0.018241016,0.0833822,0.042303946,0.02996765,-0.04123275,0.010888511,0.049530454,-0.088910595,0.1401956,-0.042561732,-0.017731909,-0.062377024,0.07236807,0.14888568,0.0030291546,-0.02961702,0.06401908,-0.11657591,-0.037971526,0.18781292,-0.025781926,-0.018045451,-0.13007733,0.09713248,0.07971769,0.019239485,-0.11372461,-0.09806231,0.09949686,0.015409399,0.10393457,-0.0018152788,-0.05653959,0.01639616,-0.008011357,-0.06086941,-0.0011715891,-0.09047096,-0.15293348,-0.009534835,-0.005581225,-0.057262097,0.035057757,-0.018896285,0.024610804,-0.0000047760086,0.17528036,0.11021785,0.06861273,-0.10769586,-0.024975559,0.0056823464,0.036095724,-0.1908081,0.025610566,-0.04425575,-0.09896701,-0.07554213,0.14286911,0.17425166,0.13678555,-0.092694975,0.040731613,-0.08257632,-0.11823091,0.08117711,0.021288494,0.1015166,-0.16027448,0.1373338,0.042636614,-0.040484212,0.046991225,0.10067018,-0.0008906458,-0.012249391,-0.0055875303,-0.1639466,0.0030107878,0.10171857,-0.10638359,0.09429239,-0.18934023,-0.037081454,0.024510061,0.021984145,0.025403263,0.030399224,-0.006142739,0.033125956,-0.050087653,-0.071385786,-0.057313114,0.09872422,0.09785105,0.09212012,-0.052302618,-0.0063247606,0.060147267,-0.11440461,-0.052064717,-0.06445583,-0.051895678,-0.08422273,-0.015076795,0.08698964,-0.03084836,-0.03394171,0.029383479,